437 400
similarity -0.0760833 0.013008 0.0251454 -0.219121 0.00652961 -0.0415633 0.271746 -0.0972321 -0.24643 -0.109348 0.189609 -0.21589 -0.356448 0.251977 0.427042 0.0635691 -0.0693589 -0.0982582 -0.128472 0.0395349 -0.184509 0.0530329 0.0292161 -0.122366 0.179465 -0.108144 -0.36299 -0.268257 -0.146797 -0.311347 0.183316 -0.0543526 -0.168988 -0.166999 -0.0814297 0.383612 -0.10212 0.135242 0.144336 0.0739322 -0.14505 0.209953 -0.326218 0.0309206 -0.315631 -0.0168051 -0.0842506 0.0120001 0.0871118 0.381591 0.292944 -0.114289 -0.172641 0.00820707 0.0614402 0.122786 0.260751 -0.0545384 0.0625316 0.209317 0.207198 -0.153589 0.0497 -0.0540245 0.205152 -0.185663 0.13938 -0.0165877 -0.0082684 -0.337561 -0.0402598 0.107846 0.0115961 -0.0665476 0.28958 -0.0432762 -0.360247 -0.00599748 0.0202397 -0.00344189 -0.262388 0.142219 -0.243987 -0.0932619 0.0718326 0.155132 -0.0414931 -0.113412 -0.132599 -0.183734 0.00563703 -0.0766517 -0.0605749 0.0981855 -0.187557 0.115547 0.0817309 -0.0972123 0.0303437 -0.0497325 -0.225907 -0.380308 -0.0588859 0.156245 0.239025 -0.222686 0.196929 -0.355788 0.06298 0.468167 0.0441051 -0.323074 0.0626322 -0.192683 -0.621052 0.134406 0.549951 -0.050962 0.0683485 -0.204351 0.200712 0.143918 -0.257042 -0.0952482 0.134097 0.225343 0.0815714 -0.197773 -0.067437 -0.000422011 -0.0300464 -0.020556 -0.10425 0.0949699 -0.137644 0.106885 -0.262573 -0.223598 -0.121269 -0.251441 0.230513 0.150574 -0.286259 0.00686334 0.11165 -0.178469 -0.0914479 -0.383358 0.00770134 0.0536419 -0.132031 0.00471776 -0.116733 -0.0453914 -0.165709 -0.173337 -0.204913 0.295882 -0.148099 -0.0451615 -0.0632694 0.0375392 0.255923 -0.0878429 0.0288447 -0.0527313 0.0318814 0.0262922 -0.18969 0.00275329 0.278322 -0.0918766 0.201668 0.399726 0.0305633 -0.0299978 0.0407508 0.33023 -0.108802 -0.0438739 -0.247715 -0.204116 -0.33355 -0.260819 -0.239252 -0.435834 0.312747 0.130173 0.0187842 -0.220949 -0.0386199 0.176196 -0.421821 0.500278 -0.199949 0.101676 0.167194 -0.080132 0.088589 -0.143399 0.173345 -0.110264 0.0363572 0.0973853 -0.0382571 0.024639 -0.0227475 -0.122885 -0.148765 0.000890011 0.362754 0.00856683 0.0414781 0.170761 0.189499 0.0233955 -0.26296 0.0271575 -0.364445 -0.07923 0.0701881 -0.25773 -0.0442403 -0.223369 0.0109721 -0.195706 -0.135045 0.118493 -0.270793 -0.187201 0.097031 0.151875 -0.0332245 0.175713 0.00892739 -0.11558 0.108912 -0.158922 -0.33738 0.0655198 -0.165574 -0.255897 0.0507853 -0.0808436 -0.329232 0.279523 -0.144782 -0.0849361 0.246039 0.13261 0.0710583 -0.177768 -0.150224 -0.255052 0.130568 0.214404 -0.098843 -0.302362 -0.127029 -0.509542 -0.258121 0.069934 -0.518949 0.343064 0.171472 0.0665286 -0.208334 -0.0796428 0.13964 -0.119058 -0.219496 -0.0482087 0.0246997 0.052844 0.0654258 -0.0170446 -0.138301 0.00374774 0.223017 -0.110033 -0.044038 0.124403 -0.180507 0.215198 -0.151669 -0.265095 0.0131809 -0.150271 0.00466311 -0.0490287 0.365403 -0.0137188 0.0666366 0.193939 -0.0287224 -0.10779 -0.106584 0.17236 0.0940253 0.218669 0.0173306 0.0483843 0.087906 0.221974 -0.371369 -0.0305326 0.0445369 0.451633 0.190797 0.335556 0.0221858 -0.0582144 0.077909 -0.18727 0.0450514 0.153814 -0.0154094 0.0666062 -0.302866 0.177871 0.347653 0.0804166 0.110461 -0.315797 0.0496708 0.28278 0.130383 -0.117447 0.174619 -0.110795 -0.187599 0.229582 0.297444 -0.0893712 0.235463 0.288726 -0.073245 -0.386074 0.242545 0.0809976 0.013137 -0.128856 -0.320914 0.087007 -0.162815 -0.2568 -0.0122494 -0.454734 0.0656684 -0.131623 0.0545453 0.025535 0.0730476 -0.125781 0.221562 0.47165 -0.333389 0.388127 -0.0259574 0.0816847 -0.0641452 0.112024 0.190686 -0.0306148 -0.0313781 -0.0928997 0.327262 -0.209166 0.116095 -0.144986 -0.030068 0.0724213 0.143303 -0.0102667 -0.129071 0.250688 -0.0619615 0.0671228 0.207507 -0.0994847 -0.147371 0.00512378 -0.311441 0.256265 0.0544409 0.192324 -0.0990257 -0.118108 0.0988197 -0.182615 -0.0455218 0.36723 0.0197455 0.0299056 -0.338728 -0.187425 -0.0717187 0.363634 0.0948956 -0.200502
dollar 0.156649 -0.248237 0.231504 0.0476998 0.133321 0.000353083 0.228105 0.0880526 0.0136219 -0.147957 0.636328 -0.3454 -0.265908 -0.125579 0.262294 0.348496 0.343643 0.116325 0.286502 -0.274837 -0.200233 0.30606 0.154233 0.197648 -0.00389147 -0.0932437 -0.103538 -0.135747 0.207203 0.253003 -0.103163 -0.0900616 -0.11684 0.43812 -0.0644484 -0.0565727 -0.234825 0.272824 0.29814 -0.00515377 -0.482387 0.267198 0.080016 0.0495153 -0.152764 -0.134323 -0.263213 0.278881 0.427828 0.255716 -0.252201 -0.0292254 0.0182382 0.434124 -0.115057 0.122489 0.177677 0.130296 0.113458 -0.286899 -0.335987 -0.194654 -0.241944 -0.0916544 -0.19787 -0.229412 -0.170615 -0.0535603 0.147506 -0.379867 0.0753445 0.337434 -0.142635 -0.242129 -0.245158 0.208006 -0.0677871 -0.189206 -0.15375 -0.097365 -0.167108 -0.149364 -0.00209705 0.161353 -0.174014 -0.0277544 -0.126339 0.0600909 0.389154 0.139072 -0.522928 0.361061 0.154417 -0.13025 0.105665 0.302462 -0.06158 0.0490579 0.133334 0.0260098 0.0653516 0.30413 0.0639165 -0.228534 -0.119278 -0.277697 -0.0501743 -0.302199 0.187194 0.0099868 0.19979 -0.319074 -0.00376795 -0.0905897 0.074855 -0.373465 -0.211701 0.202056 -0.203041 -0.0933741 0.284297 0.0484725 0.16879 -0.0273899 0.135001 -0.0673472 0.054267 0.202295 -0.19756 -0.151796 -0.232307 0.02072 -0.397549 0.225551 0.0896178 -0.248288 -0.219092 0.125111 -0.0694056 -0.457875 0.20377 -0.28334 -0.0175227 -0.0571445 0.000678386 -0.341971 -0.283979 -0.284732 0.239303 0.122918 0.0294963 0.0736176 0.519398 -0.306429 0.0347169 -0.0818601 -0.0568363 0.132728 0.200928 0.132528 -0.226418 -0.403864 -0.0598016 0.200599 0.42992 0.0993265 -0.336151 -0.0612007 0.123595 0.389451 -0.101943 0.150475 -0.039109 0.287077 -0.0173694 -0.142805 0.00670655 -0.489215 0.10823 -0.107796 -0.467127 0.196753 -0.116339 -0.251546 -0.15777 -0.239724 0.112526 -0.0988392 0.521868 0.0456792 0.294671 -0.205315 -0.0665792 -0.21218 -0.0518169 0.201286 -0.173972 0.0619659 0.0953023 -0.304027 -0.107769 -0.162876 0.00531943 0.0646498 -0.17677 0.115284 -0.0349344 0.470675 -0.249449 0.134292 0.125964 0.12793 0.206648 0.0880869 -0.0935766 -0.392458 -0.0715674 0.167185 -0.387242 0.105236 0.655473 0.257484 -0.305294 -0.298003 0.342226 -0.222473 -0.195318 0.225501 -0.110602 0.0685645 -0.25329 -0.100058 -0.182555 -0.186861 -0.349114 0.093323 -0.143163 0.281462 0.120278 0.329689 0.120271 -0.207945 0.425832 0.118155 0.0592069 0.0559265 0.422401 -0.00685402 0.271765 0.220057 0.599801 0.0562507 0.243217 -0.111764 0.148652 0.025585 -0.0713282 -0.101641 -0.0337127 -0.243074 0.232883 -0.27361 -0.332713 -0.165417 0.338744 -0.130952 -0.106072 -0.460708 0.0324217 -0.380721 -0.111584 0.151363 -0.236932 0.151547 -0.105007 -0.035505 0.348113 0.280223 -0.51411 -0.107278 -0.20023 -0.192969 -0.00460534 0.0079352 -0.154052 -0.101456 0.187562 -0.269141 -0.334696 -0.342561 0.0133372 -0.112727 0.136009 0.367535 0.234422 -0.233023 -0.366552 0.0407225 -0.204833 -0.216793 -0.0516463 -0.00729999 -0.236606 0.0518111 -0.460645 0.176586 -0.261908 0.11713 0.517035 -0.211593 0.238828 0.0770556 -0.106058 0.267142 -0.0530146 0.0537132 0.502134 0.160478 -0.102071 -0.0490966 -0.189621 0.0109127 0.359393 0.143139 -0.246339 0.495875 0.15337 0.0751832 -0.063136 0.153987 0.248899 -0.216478 0.0179186 -0.198335 -0.280647 0.0289892 -0.0645889 -0.123874 0.0810282 0.0569023 -0.170783 -0.177846 0.0610994 0.166073 -0.330392 0.0181801 -0.0252276 -0.512051 0.255506 0.233854 0.445732 -0.254252 -0.105039 0.211585 -0.0880119 -0.251415 -0.219286 -0.316883 -0.0144338 -0.0451229 -0.100563 0.142812 0.00311759 -0.0734762 0.194587 -0.215413 0.220468 -0.194044 0.279288 0.0543764 0.0750759 -0.371419 0.108584 -0.0740816 -0.357013 0.232332 0.079 -0.252765 -0.294782 -0.0232411 0.0603581 -0.360498 0.10324 0.193898 0.228191 0.146966 0.16405 -0.562854 -0.0542925 0.37811 0.268044 -0.15203 -0.434875 0.135364 -0.244184 0.232037 -0.0446552 -0.240254 -0.474376 0.285012
focus 0.0630385 0.0653761 -0.0978466 -0.0858023 -0.167374 -0.0156293 0.226813 -0.122814 -0.197449 -0.0203728 0.232172 -0.0480169 0.0141585 0.0275518 0.0543856 -0.113691 0.0176248 -0.0570693 0.20647 0.0155401 -0.0418486 0.0288908 -0.187859 0.0239938 0.090583 -0.204607 -0.071558 -0.109145 0.235976 0.167647 0.226783 -0.0433702 0.164526 -0.451222 -0.0320587 -0.295702 0.0988718 0.284479 -0.0226244 -0.15242 0.0717834 0.0957528 -0.190647 0.065474 0.0245235 -0.0854709 0.0133048 -0.00267006 0.141548 0.0628451 0.0868863 0.101826 0.133603 -0.0470012 0.0810734 0.135608 0.225365 0.110866 0.104822 -0.0197846 0.117258 -0.172701 -0.118584 -0.00426842 -0.352335 -0.401175 0.0800617 -0.123766 -0.0605158 0.20124 -0.0620914 0.13261 -0.0238436 -0.191841 0.193576 -0.267066 -0.302206 0.0666618 -0.0666784 -0.229105 -0.0761338 -0.038659 0.0390587 0.170823 -0.0196484 -0.0246216 -0.169059 -0.0409811 0.0102311 0.135541 0.0164117 -0.0728838 0.0368316 0.0699784 0.00857412 0.0719428 0.190915 0.0106254 -0.0232012 0.25381 -0.071778 0.133934 -0.0650885 0.00547111 0.150559 -0.189507 0.0247867 0.00932118 -0.0324368 0.207511 0.302111 0.12568 -0.168308 -0.364575 0.143635 -0.0507104 0.0722962 0.0751837 0.0252365 -0.116266 0.211523 -0.0397741 -0.262495 -0.0106196 0.266919 0.234548 -0.196217 -0.124633 -0.11181 -0.0263293 0.206423 0.0657991 0.0903497 0.0171631 -0.0874821 -0.151938 0.00354382 0.0473863 -0.125938 0.0284494 -0.0920159 -0.251981 0.23727 -0.228491 0.125999 -0.169473 0.0159577 -0.0334903 0.134371 -0.307928 -0.0122396 -0.169073 -0.0111837 -0.0141818 -0.0817372 0.230513 0.13464 0.188243 -0.146878 0.0509783 0.0636168 0.117795 -0.483179 0.104511 -0.279101 0.0619339 -0.0428677 -0.00364343 -0.0142152 -0.0286305 -0.224944 -0.103217 0.126319 0.175615 0.12879 0.249059 -0.120358 -0.244533 -0.269098 0.131304 -0.16321 0.0208099 0.11674 -0.149455 -0.133363 -0.145898 0.0217102 0.0534151 -0.0813022 -0.0231808 0.0333486 -0.111437 0.165391 0.00130184 -0.0395461 0.296211 0.125443 -0.0734276 -0.0464478 -0.0397989 0.00584697 0.051668 -0.202613 -0.0166984 0.223876 0.0194031 0.0753849 -0.11805 -0.367642 -0.0945169 0.128518 -0.0836159 0.150154 -0.142621 0.0372852 0.141935 -0.230984 0.0100033 0.135637 -0.0674491 0.145982 0.146522 0.138487 -0.0419876 0.083403 -0.0181536 -0.161614 -0.0992265 0.0739133 -0.0591468 -0.380589 -0.175094 -0.16231 -0.0143612 -0.12501 0.180074 -0.0465345 -0.0707329 0.118587 0.0858803 0.307914 -0.188601 0.0700375 0.00845271 -0.135192 -0.00173556 -0.189981 -0.0829943 0.218332 -0.082713 0.128403 0.0791095 0.153839 0.0148616 0.0439928 0.116259 -0.0156164 -0.219603 0.0920915 -0.231584 -0.113059 0.0949868 -0.0819935 0.342263 0.293687 -0.0832283 -0.327781 0.185171 -0.0159428 -0.22141 -0.0149739 0.141503 -0.00242094 0.000490578 0.143541 0.0360875 0.0847731 0.205613 -0.0207793 0.0407451 0.102007 -0.11214 -0.208775 0.209615 -0.354984 -0.281099 -0.0703652 -0.10897 -0.07023 -0.120726 -0.0715724 -0.0970231 0.33261 0.217793 0.135697 0.123247 0.130024 0.0267484 0.0544392 -0.156182 0.105139 -0.0974561 0.149557 0.0102106 0.129333 -0.173515 0.0805827 0.141305 0.212956 0.065621 0.0979671 0.0264735 0.102181 0.134731 0.0128912 0.336871 0.0494511 0.0275266 0.143996 -0.10863 -0.0199948 -0.180733 -0.0601781 -0.00381423 -0.191148 0.120416 0.122354 -0.192987 -0.00386693 -0.355698 0.00688874 0.106021 -0.132903 -0.221284 -0.150691 -0.0148878 -0.0112418 0.0118892 0.0260727 -0.0578201 -0.124399 0.0583694 -0.218812 0.079619 -0.10857 0.13561 -0.0605024 -0.0490586 0.0672863 -0.0734949 0.109697 0.207335 -0.00309139 0.226852 -0.158007 -0.206763 0.156805 0.309026 -0.0591448 -0.142704 -0.175704 -0.131301 0.00549702 0.0523056 0.00872834 0.0918404 -0.0662087 0.103546 -0.149109 0.1803 0.168497 0.0290116 0.137616 0.182878 -0.153045 0.138801 0.0845868 0.0583849 0.131547 0.334307 0.113283 -0.104029 0.0128819 0.0792101 0.206401 0.174984 0.0311721 -0.104939 -0.0856627 0.157501 0.0121512 0.058086 0.138641 -0.0990888 -0.0470811 0.233337 -0.0217038 0.0608222 0.0612485 -0.15344
month 0.0194609 0.0240101 -0.0525067 -0.165142 0.0901549 -0.103406 0.0216802 -0.299183 -0.0931595 -0.114788 0.0388767 0.0300504 -0.0884862 0.147514 -0.0150627 -0.0617711 -0.0486537 -0.225191 0.0572851 0.133249 0.0229048 -0.0844066 -0.043049 -0.125211 -0.0610365 0.0766445 -0.218968 -0.205844 0.151385 -0.121176 -0.150907 0.0790614 0.116304 0.00972272 -0.0400445 -0.316044 -0.0518429 0.101637 -0.106469 -0.152996 -0.355044 0.0410655 0.0487865 0.0331964 0.299575 0.0174135 -0.141229 0.0523998 0.159471 0.0162173 -0.0311169 0.117089 0.108516 0.113095 0.302389 0.113373 -0.0708681 0.232824 -0.0488319 -0.274734 -0.112409 -0.192585 0.0668615 -0.148895 0.12928 0.0116161 0.0198236 -0.223825 -0.129808 -0.0863132 0.065002 0.0557258 0.0524402 -0.276728 0.0312944 -0.075876 0.233903 -0.0512447 -0.016557 -0.245277 0.00288937 -0.216487 0.0464791 -0.0751626 0.205862 -0.303967 0.0281467 0.12563 0.40188 0.176154 -0.0596388 -0.144279 -0.0630726 -0.255659 0.0583766 0.101259 0.138642 0.0773129 -0.143161 0.162439 0.216309 0.0708755 0.122418 -0.262425 -0.0498585 -0.0604939 0.160966 -0.112946 -0.0906481 -0.0204675 -0.0997638 -0.122151 -0.186481 -0.298942 0.0126328 -0.188245 0.141251 -0.0948933 0.00106081 -0.0849167 0.0956188 -0.0243433 -0.196135 -0.0805283 -0.106116 0.249245 -0.277099 -0.121597 -0.0256802 0.0761369 -0.037805 -0.00213872 -0.123779 -0.0121078 0.0271615 0.0471727 0.0587169 0.0240955 0.159966 -0.144507 0.0767977 -0.08155 0.062782 -0.267949 0.159616 0.0942647 0.345888 -0.143873 0.171719 0.00375922 0.0981488 0.0124791 0.202012 0.0965149 -0.0431887 0.109967 -0.269899 -0.00831576 -0.247576 0.0542549 -0.252312 -0.0838223 -0.0102609 0.0471767 0.236303 -0.186096 -0.0988417 0.189859 -0.00028312 0.0950563 -0.0507424 -0.118843 -0.00645883 -0.018571 -0.00840118 -0.220643 -0.0455961 0.149641 0.0145975 -0.184967 0.018506 0.221915 -0.0271297 -0.319474 -0.257381 -0.235736 -0.239658 0.0478618 -0.0727954 0.0662505 0.0813555 0.111684 -0.0155856 0.0700315 0.0775197 0.231891 -0.198464 -0.0152762 0.242764 -0.0259599 -0.0434354 -0.114815 0.0268369 -0.0497475 -0.178012 -0.0616946 0.168831 -0.0626695 -0.14669 -0.133138 -0.0255831 0.237236 -0.0842494 0.17037 -0.0761968 0.250524 -0.0460824 -0.181739 -0.0837156 -0.128341 0.161361 -0.0649813 0.0750581 0.00535627 -0.00350767 -0.277335 0.195158 0.169544 0.106732 -0.0579446 0.0803761 -0.0143607 -0.139344 0.281624 0.0726852 -0.0220461 0.0138151 0.125404 0.104943 -0.145288 -0.0480968 -0.0472321 0.0734072 0.0311491 0.176964 0.0195503 0.116372 0.155821 0.152738 0.100198 0.167823 0.0739116 -0.172655 -0.0479971 0.0437822 0.104444 0.0492596 -0.0544351 -0.227024 0.00101506 0.24251 0.116761 0.195546 0.301824 0.0523193 0.0217397 0.0513668 0.165642 -0.0733126 -0.108006 0.0434217 -0.0507202 0.148357 -0.183467 -0.0605195 0.199418 0.138076 0.0707899 -0.209636 0.095297 -0.126023 -0.144457 -0.0903164 -0.0542377 -0.172965 0.0060915 -0.159323 0.209604 0.164538 -0.302587 0.251711 -0.0822331 -0.0506663 0.186383 0.00765665 0.0476061 0.292672 -0.067048 0.281279 -0.0367216 0.128986 0.0524971 -0.260075 -0.0275695 -0.15812 0.1581 0.128136 -0.0462926 0.199737 0.0664835 0.0746999 0.0417409 0.0290826 -0.0969904 0.241979 0.216033 -0.287305 0.268008 0.038893 0.0328421 -0.0497417 -0.166086 -0.122586 0.194714 -0.107449 -0.0257805 0.054846 -0.0726753 0.0607937 -0.170815 -0.17011 -0.203523 0.0816155 -0.0604849 0.0322949 0.0428369 0.0121709 -0.192047 0.0835642 -0.0411904 -0.0119243 -0.077525 0.0584818 0.095206 -0.0476547 -0.139804 -0.0924928 0.106197 0.0992251 0.0342728 0.406621 -0.111326 -0.116018 0.166971 0.11313 0.0230153 0.0112558 0.0894322 0.114277 -0.0417252 -0.0865252 0.149062 -0.00500095 0.0549782 0.0161936 -0.0556342 -0.0136063 -0.210251 0.0116864 -0.07681 0.0493792 -0.0954874 0.126748 0.0632492 -0.163578 0.0639732 -0.0303242 0.170811 0.162968 -0.0811546 0.0529794 0.0744068 0.0289966 0.154031 -0.0849146 0.0343528 0.0184966 -0.434788 0.0595072 -0.187748 0.123793 -0.316217 -0.166929 -0.0273363 0.0706613 0.173022 -0.219615 0.24841 0.121079 0.0473344
mile 0.0221595 -0.059659 -0.154073 -0.250005 -0.0712139 -0.0593995 -0.0587496 -0.0805549 -0.0939946 -0.0939662 0.286018 0.167432 0.107138 0.108974 -0.129478 -0.223863 -0.227051 0.203895 0.197532 -0.193193 -0.0904928 0.123515 0.0813647 0.207607 0.0935341 -0.21648 0.192099 -0.0680852 -0.0789857 -0.275742 -0.280819 0.108562 -0.303125 -0.23589 -0.0447649 -0.0409084 0.013066 -0.233471 -0.178319 0.0511709 -0.492463 0.200313 -0.44614 -0.195558 -0.0375555 -0.086589 0.294258 -0.0793773 -0.00207671 0.244651 -0.152748 -0.0450766 -0.227205 0.0220558 -0.169904 0.146693 0.0590728 -0.0346604 0.01179 0.439804 -0.00193863 -0.149323 -0.157939 -0.157281 0.0607146 0.0611932 -0.304603 0.0195034 -0.235732 -0.208403 -0.0463123 0.0169611 0.13612 -0.244392 0.212899 -0.316386 -0.0599745 -0.109031 0.38239 -0.495951 -0.0562625 -0.281402 0.15791 -0.0733673 0.189916 -0.218809 -0.00713581 -0.00198274 0.313944 -0.0169063 -0.398842 -0.0909786 -0.197434 -0.222832 -0.124091 0.0661407 -0.163347 -0.0919957 -0.173134 0.502126 -0.109454 0.27687 0.09999 -0.422487 -0.165042 0.197786 0.14907 0.113514 0.0489177 0.24063 -0.0521833 -0.267277 -0.127476 0.105986 0.0451163 -0.0366713 -0.194961 -0.294283 0.0370879 -0.11536 -0.200447 0.0146888 0.139398 -0.0397342 0.0348116 -0.159869 0.0635154 -0.0237647 -0.463731 -0.0644854 -0.113862 -0.230611 -0.0848743 0.0833063 0.0105251 0.133871 -0.0405583 -0.0372505 0.0789223 -0.296576 -0.133466 -0.320494 -0.00601012 -0.0724595 0.046919 0.0242246 0.0842896 -0.166942 0.135774 0.00200735 -0.328205 -0.196874 0.115147 0.437185 -0.0411875 -0.16203 -0.0165095 0.130049 0.00105827 0.300411 0.230052 0.209494 0.0825386 -0.0273724 -0.0609951 -0.319617 -0.307149 0.189057 -0.0753306 -0.0115523 0.352743 0.145664 0.120749 0.0234839 0.066447 0.127719 -0.0264174 -0.354113 -0.349682 -0.0813996 -0.0102051 0.156908 0.207049 -0.443101 -0.174543 -0.0488223 0.179124 0.270313 -0.217094 0.116147 -0.131 -0.0645861 0.20046 -0.122741 0.0281412 0.317571 0.366533 -0.26353 0.550109 0.199068 0.236846 -0.128967 -0.0199371 -0.0957989 -0.0838734 0.226175 0.199758 0.0183885 0.0144917 0.445663 0.0294016 0.366002 0.373543 -0.0839542 0.594322 -0.0196812 0.0743716 -0.364915 -0.371894 -0.165708 -0.0814558 -0.208653 -0.0896458 -0.0162379 0.0520298 -0.259959 0.095978 -0.242078 0.0573113 -0.149103 0.17473 -0.0517312 0.204336 0.261719 -0.029678 -0.101413 0.448524 0.178056 0.377113 -0.171985 0.119357 0.0286919 0.285278 -0.0439082 0.12565 -0.250478 0.160427 0.225525 0.0813628 -0.109351 0.268293 -0.0257016 0.0876926 0.20205 -0.0436517 -0.0688423 0.0508954 -0.0624288 0.089027 -0.177431 -0.0126578 -0.519205 -0.0424908 -0.257424 -0.0496144 0.206952 -0.0871309 0.0398279 0.0500233 -0.0682175 0.183565 0.0614995 0.220136 -0.289716 -0.320811 -0.0708816 0.0992611 -0.307224 -0.0812211 -0.0593629 0.0484197 0.0964038 -0.0430496 -0.286609 -0.172489 -0.0429528 -0.352066 -0.0947147 -0.0843662 0.0822926 0.466667 -0.22299 -0.342459 -0.0116493 -0.0149207 0.0446276 -0.421388 -0.123694 -0.289369 -0.793401 -0.114257 0.352941 -0.401358 -0.000788795 -0.280331 0.0889564 0.033505 0.35173 0.279305 -0.0433594 0.197098 0.0688112 -0.0668425 -0.391347 0.067417 0.274321 -0.113948 -0.133063 0.11361 -0.0737719 -0.0709076 -0.142733 -0.0929879 -0.0971131 -0.0585034 -0.0280201 0.0433898 -0.111105 -0.179106 -0.0546917 0.136256 0.0111358 0.135716 0.200691 -0.0798323 0.408044 0.0554367 0.0487811 -0.042253 0.125584 -0.0369379 -0.0563566 0.185844 -0.369792 0.0886425 0.386448 0.101616 -0.154951 0.13306 -0.51211 0.0943561 0.00250238 -0.0135836 0.199484 0.275609 0.111619 -0.0809471 -0.123691 -0.160541 0.0160272 -0.321065 -0.16794 0.139236 -0.125687 0.0863327 0.407949 0.380608 -0.324063 0.258033 -0.510183 -0.0625435 0.0269732 0.402977 0.116598 -0.281507 -0.0108367 -0.239082 0.0493734 -0.309015 -0.184178 0.291176 0.259326 0.0686571 0.108179 0.398439 0.0674412 0.256141 -0.165672 -0.147871 -0.0332064 0.282606 -0.211726 -0.134972 -0.00637677 -0.140885 -0.243293 0.132086 0.0143116 -0.0944428 -0.215638
computation -0.0457325 -0.00288461 -0.0509371 -0.5167 0.232386 0.113278 -0.143367 -0.331761 0.170189 0.154362 0.31982 -0.0430584 0.0708397 -0.120993 -0.100291 0.18749 -0.463534 -0.187477 0.0108979 0.229997 0.00341298 0.222238 -0.130288 -0.239026 0.467157 0.168448 -0.420421 -0.502875 0.00128249 -0.232671 -0.245942 -0.213803 0.0272421 0.131945 -0.055914 -0.0222424 0.0942077 0.227619 0.128414 0.421443 -0.00283522 0.0359806 0.143687 0.3388 -0.334412 -0.479362 -0.216314 0.125851 0.443938 0.0659905 -0.24482 0.0904053 0.246565 -0.0352866 -0.151954 0.0408027 -0.00462953 -0.321138 -0.2506 -0.494658 0.175286 -0.0710437 -0.000427752 0.451374 -0.564776 -0.112705 0.174503 0.279066 0.268215 -0.116579 0.167822 0.0745432 0.086037 0.179192 -0.102792 0.0417233 -0.156973 -0.118107 0.244041 0.31706 -0.563148 -0.285305 -0.400877 -0.0837756 0.0257385 -0.440608 -0.518278 0.0736499 -0.211029 0.092594 -0.0456991 0.153231 0.0211211 0.0725467 0.0632945 -0.153169 -0.0961807 -0.0192617 -0.274932 -0.22978 -0.175883 -0.00506068 -0.335281 -0.13012 -0.108624 -0.367778 0.256008 -0.175159 0.0751631 0.30818 -0.167444 -0.250067 -0.0192504 -0.194197 -0.00910055 -0.341973 0.0766458 0.0700973 0.040917 -0.0329973 -0.00339006 0.034009 -0.0144285 0.347677 -0.104477 0.237637 0.0634671 0.0654889 -0.178371 0.0552836 -0.257654 -0.31235 0.0047838 0.272473 -0.450776 -0.0666186 -0.273405 0.166136 0.208627 -0.168487 -0.227769 0.303715 0.126327 -0.175925 0.146425 -0.375745 -0.270862 0.146703 -0.0544279 -0.384828 -0.30801 -0.405003 0.0559512 0.166605 -0.345378 0.293327 0.186418 0.514612 0.0865957 -0.138822 0.0304519 -0.148442 0.0256001 -0.215896 -0.232461 0.446457 -0.0350595 0.206406 -0.399213 -0.539394 -0.618846 -0.245594 0.193088 -0.134825 -0.0139572 -0.294198 0.0174655 -0.055139 -0.445542 0.0770211 -0.224913 0.14591 -0.0247188 -0.286099 -0.389995 -0.38204 0.212181 -0.272273 -0.0426078 0.152845 5.41345e-05 0.162968 0.013325 0.12016 -0.124945 0.126151 -0.0619921 -0.258103 0.0727503 -0.169258 -0.017593 -0.113052 -0.240025 -0.343676 -0.0683008 -0.0147029 -0.71757 0.20962 -0.430645 0.065004 -0.245995 0.268582 0.0356168 -0.312104 0.0261858 -0.199096 -0.184056 -0.369717 0.0126989 -0.0523508 0.0662578 -0.231014 -0.0486687 0.168079 -0.45931 -0.209021 -0.440003 -0.0240421 -0.0151219 -0.123739 0.066254 0.0363377 0.0817093 -0.178308 -0.131021 0.228401 0.143644 0.0184485 -0.522581 0.019696 -0.0109421 -0.0355739 0.4044 -0.0424361 0.16802 0.364442 0.110376 -0.0586384 0.148038 -0.00918084 -0.0220238 0.0976785 0.0833188 -0.261141 0.314737 0.0992858 -0.0618734 0.0890093 -0.332653 -0.40448 -0.281187 -0.0442889 -0.348547 -0.0278375 -0.205326 0.159866 -0.254788 0.462274 0.0723018 -0.29674 0.0263755 -0.0362106 -0.366439 0.183656 0.0390326 0.0795169 -0.0545117 -0.389724 0.150605 0.213016 0.0616777 0.202877 -0.291243 0.0835728 -0.00130571 0.082047 -0.11451 0.127845 -0.00721553 -0.12689 -0.136907 0.0750629 0.283081 0.100299 0.0294017 -0.174448 -0.468363 0.163789 -0.0730872 0.157314 0.373358 -0.281855 0.25843 0.517897 -0.111823 0.10293 -0.0435696 0.424999 0.716098 -0.0376087 0.175319 0.298471 0.264906 0.138125 0.0686151 0.326704 0.0243161 0.337413 -0.203945 0.0532373 -0.0260331 -0.482747 0.113267 -0.167558 -0.247654 0.0959138 0.288032 -0.424013 -0.333991 -0.44124 0.264744 0.369685 0.343248 -0.0668707 -0.0247973 0.0269382 0.146977 -0.00668406 -0.154873 0.061186 -0.0335286 -0.0558172 -0.0163679 -0.113455 -0.271366 0.0131473 0.161891 -0.159013 0.084015 -0.274018 0.229885 -0.0734839 0.324495 0.279166 0.230719 0.309416 -0.249735 0.033735 0.173704 0.238832 -0.276401 -0.0949479 0.197747 0.139605 -0.0917892 0.298418 0.357016 -0.0501949 0.177167 -0.16525 -0.228799 -0.160186 -0.100774 0.140304 -0.00207711 -0.313952 0.413636 -0.0607035 0.265445 -0.0422292 -0.0795998 -0.0124853 -0.242807 0.344087 0.419364 -0.561015 0.392432 0.227882 0.128661 -0.069706 -0.197056 -0.0978178 0.384686 0.197662 0.021116 -0.283889 -0.251723 0.319775 -0.135703 0.231798
skin -0.348179 0.103041 -0.311536 -0.266084 -0.087116 0.435612 0.221807 0.170524 0.249154 0.344489 0.185118 0.21823 -0.389843 0.26566 -0.01453 0.286941 0.145353 0.172834 0.11368 0.148996 -0.158751 0.277067 0.0576456 0.149561 0.247827 0.0173773 -0.35746 -0.144836 -0.195398 -0.288984 -0.0726173 -0.289696 0.133044 0.101545 -0.265303 -0.212469 0.0564305 0.0280678 0.209989 -0.0735753 -0.503959 -0.180979 0.069356 -0.131499 -0.0589497 0.333006 0.118716 -0.0547182 -0.031202 0.00939698 0.156032 0.232897 0.0482383 -0.0250675 -0.0205619 0.195584 0.0178908 -0.250539 0.104149 -0.0752538 0.268366 -0.431217 -0.121592 -0.0423774 0.29016 0.357591 -0.222784 0.115049 0.131735 0.405441 0.0273828 0.286753 0.105237 -0.0678899 0.20715 -0.0781856 -0.280208 0.160458 0.0260896 0.327316 -0.139108 -0.248925 -0.184026 0.10379 -0.00209859 -0.163783 0.211754 0.132661 -0.397169 0.325414 0.195505 0.0030397 -0.0679195 0.163324 -0.345051 0.126637 -0.146563 -0.154366 -0.0478638 0.162042 -0.278203 -0.119065 0.0935795 -0.273184 0.309047 -0.229295 -0.153086 -0.302341 -0.100283 0.270605 -0.240665 0.0375352 0.00737305 -0.159658 -0.141235 -0.4345 0.0682092 0.295909 -0.098749 -0.0981388 -0.0661015 0.332067 -0.0815919 0.0581472 -0.131194 -0.311996 0.0660413 0.311041 -0.0918788 -0.00144438 0.170252 0.242795 -0.218995 0.00607603 -0.212337 0.0434743 -0.106913 -0.276032 0.332407 0.109726 0.103636 -0.0998985 0.150689 -0.141272 -0.0760676 -0.235645 0.114943 0.240897 -0.125758 -0.15766 0.0998922 -0.188314 0.196392 -0.0186977 -0.188677 -0.170412 -0.0831975 0.125337 -0.0223988 -0.167452 -0.0429399 0.100208 -0.110012 0.191625 -0.222021 0.0715385 0.0509765 -0.253841 0.00229462 -0.0149639 -0.0301361 0.0739832 -0.0838561 0.596083 0.199911 -0.114155 -0.028526 -0.161697 -0.0263995 0.213391 -0.0110629 -0.104226 -0.08576 -0.10891 0.0959062 -0.493673 0.420217 0.101204 0.334602 0.122856 -0.476195 -0.0491409 -0.0223283 -0.0596064 0.127262 0.117601 0.0895803 0.139679 0.260213 0.262504 -0.122366 0.459075 -0.332165 -0.164965 -0.172006 0.0451864 -0.00721286 0.110472 -0.0274748 0.264845 -0.169714 0.143151 -0.0134564 -0.00132707 0.102941 0.182994 -0.268567 0.100637 0.0835769 0.0122249 -0.20204 0.0264246 -0.140667 -0.0661755 0.016748 -0.148411 -0.0639885 0.0223822 0.0836741 -0.230659 -0.363465 0.397712 -0.359645 -0.0191852 -0.0366111 -0.108773 -0.459318 -0.0115175 -0.0968437 -0.0371486 0.176474 -0.0563572 0.213602 -0.291341 0.108937 0.224414 -0.417498 0.0583334 0.131198 0.349801 -0.10397 0.384455 0.0150957 -0.26399 -0.044074 -0.0428169 -0.115218 0.0987477 0.263915 0.166268 -0.105639 0.28573 -0.412913 -0.0197145 0.191843 0.454451 0.0533003 0.0625915 0.0661248 -0.231441 -0.331338 -0.291268 0.0501693 0.101999 -0.017734 -0.437233 -0.0580918 0.0755725 -0.0746678 -0.00961794 0.236351 -0.244498 -0.0428073 -0.0932397 -0.202293 0.0341779 -0.26467 -0.00117801 -0.00584661 -0.201438 0.326279 0.207087 -0.0878809 -0.0189555 -0.0476921 0.425612 0.0124536 -0.0240339 0.16645 -0.179136 -0.175397 -0.0279721 -0.124717 0.0148622 -0.340596 0.14979 -0.0854686 0.407738 0.378462 0.0424504 0.549749 -0.131581 -0.279212 0.0888489 -0.159279 0.465954 0.153825 -0.090923 0.0327213 -0.0361271 -0.359549 0.0836329 0.16639 0.279248 -0.0161235 -0.177336 -0.12942 0.0341762 -0.0908771 -0.364242 -0.0846038 -0.0548069 0.231835 -0.339136 0.0508757 -0.045518 -0.0652336 -0.0606074 -0.435602 -0.0140481 -0.372905 -0.0439036 -0.105683 -0.123904 -0.188528 -0.355459 0.0984519 -0.111923 -0.0854449 -0.363951 0.109158 0.0980194 -0.290512 0.169991 0.0659113 -0.191465 -0.12472 0.426616 -0.0581909 -0.275078 0.200986 0.143189 -0.119435 -0.0770974 0.00421565 0.0856783 -0.027356 -0.00567032 0.211744 0.255538 -0.256964 0.0364919 0.284206 0.0943128 0.106361 0.15955 -0.032127 -0.362195 -0.349661 0.241886 0.348023 0.395519 0.127208 -0.300367 -0.139551 0.282282 0.046665 0.112921 -0.180317 0.0334072 0.0154369 -0.00939683 -0.473364 -0.101481 -0.0767729 0.0637821 -0.302599 0.0227818 -0.352338 0.0518409
children -0.0467042 0.0592998 -0.371816 -0.422449 -0.0153051 0.0286655 0.0864837 0.105465 -0.0525114 0.140612 0.0664412 0.206725 -0.115887 0.188034 0.0584477 0.170572 -0.123111 -0.194814 -0.00882463 -0.0558302 -0.00273429 0.0789977 0.0803887 0.0277724 -0.0681622 0.179672 -0.049482 0.0139235 0.0046438 0.0526888 -0.071164 0.071657 0.330587 0.00298135 -0.117108 -0.0727894 -0.129802 0.126001 -0.0500762 0.234544 -0.185641 -0.278668 0.0710468 -0.0258488 -0.302262 0.0311721 0.117474 0.0855302 -0.245874 0.291566 -0.101738 0.110655 0.0745843 0.217879 0.192865 0.362615 -0.128543 0.258613 -0.0681549 -0.230384 -0.0564214 -0.138634 0.116019 0.0485368 -0.0381689 0.358057 -0.113346 -0.102559 -0.0159482 -0.0849916 -0.0319902 0.349289 -0.0646072 0.182562 0.102782 -0.298 -0.180238 0.42815 0.215987 0.0973757 0.00899016 -0.16801 0.133296 -0.247636 0.0797384 -0.038661 0.126197 0.0806429 0.0108533 -0.162292 -0.368124 -0.0251589 -0.0289016 -0.144172 -0.178405 -0.0821237 0.210509 -0.0289194 0.160745 -0.0403568 0.00318557 -0.247901 -0.00777692 -0.24311 -0.113862 -0.0802883 -0.0493859 0.147221 0.0689299 0.174968 -0.164826 -0.201719 0.070329 -0.348258 -0.118496 -0.196356 0.208675 -0.13189 0.125985 -0.236893 0.351435 0.425759 -0.0209062 0.057313 0.0426747 -0.116744 0.120954 -0.134905 -0.218272 0.0606327 -0.024872 0.066341 -0.0940508 0.16982 -0.0476309 0.0146677 -0.013821 0.050877 0.00501254 -0.142898 -0.0550871 -0.178821 0.36036 -0.3043 -0.0925023 -0.428979 0.0191089 0.323593 -0.12122 -0.227477 0.071117 -0.0700583 -0.176295 -0.0136285 -0.0288707 -0.0689535 -0.219728 0.0377045 -0.0429808 0.199967 -0.254792 0.0344029 0.0337651 0.0757385 -0.0328936 0.132791 -0.614408 0.092558 0.189988 0.179899 0.208523 -0.0994715 0.118262 0.152591 0.174496 0.201975 0.450575 0.0251311 -0.0811753 0.223104 -0.18473 0.0906425 -0.233079 -0.0694344 -0.0883024 0.143457 0.27806 0.047493 0.120716 0.123509 -0.137214 -0.178845 -0.0905998 0.102219 0.0350878 -0.101499 0.130617 -0.117882 -0.289258 0.155877 0.183448 0.0230555 -0.0257668 0.0497729 -0.0665164 0.22539 0.0806849 0.322681 -0.0357439 -0.105053 0.0861098 -0.0135724 0.15621 0.0135743 -0.00328668 0.0991799 -0.405298 -0.114236 0.040997 -0.165149 0.353121 0.235816 0.199232 0.138806 -0.0738886 -0.141173 -0.144335 0.108004 0.0120868 -0.0367287 0.101632 0.0979297 -0.114641 0.0635676 0.178817 -0.0350558 -0.0771567 -0.278509 0.124778 0.10403 0.0486636 -0.00407938 -0.185105 -0.114785 0.152365 0.015377 -0.0986722 0.522449 0.15224 -0.126098 0.0596329 0.00363488 -0.126705 -0.262269 0.228975 0.193296 0.140277 -0.0140516 -0.15695 -0.168283 -0.152974 -0.212017 -0.173339 0.0677573 -0.0463666 -0.123797 0.216303 -0.101452 0.444092 0.0294391 -0.14716 0.017265 0.213724 0.149224 0.0560267 -0.226939 0.0770287 -0.0673104 0.0026753 0.111207 -0.0805312 -0.0895099 0.00544427 -0.148861 -0.491892 -0.0087253 -0.339112 -0.0864156 0.0817486 0.0887871 0.0405929 0.272915 0.150588 -0.100613 0.0124935 0.16374 0.00718602 0.200854 0.172711 -0.0490473 0.142331 -0.178941 0.0797836 0.229012 -0.154922 -0.152946 -0.0927784 -0.0734886 0.208409 -0.272824 -0.120959 0.0189604 -0.00258304 -0.178001 0.166122 0.433353 0.0389071 0.112891 0.166125 -0.103784 0.0839936 -0.414907 0.256612 0.00341655 0.15463 -0.18833 0.211971 0.230186 -0.0504532 -0.0979539 0.0494275 -0.148748 0.102065 -0.0274225 0.0993112 0.0114075 -0.101506 0.125168 -0.0546016 0.154426 -0.302095 0.190132 0.0420747 -0.0758175 0.00843227 0.103943 0.274741 -0.0947479 0.287164 -0.0900827 -0.199077 0.150629 -0.335993 0.0864049 0.128688 -0.0949273 -0.107917 0.222619 -0.151304 -0.223043 -0.113411 0.00862305 -0.0257443 0.0565206 -0.381603 0.0884748 0.122991 0.0224513 -0.144335 -0.0549174 0.202162 0.176533 0.129658 -0.223597 -0.0511218 0.0163537 -0.0946987 0.030898 -0.00705586 -0.152613 -0.0471386 -0.108831 -0.315814 0.00835318 0.0620872 0.116801 0.359557 -0.148096 -0.0485456 0.0690785 0.227712 0.107821 -0.164686 -0.0927304 -0.0856897 -0.0379908 0.312164 -0.148645 0.228825 0.157771
row -0.397985 0.23836 -0.14006 0.127292 0.175052 -0.193507 -0.00826556 -0.280286 -0.111946 0.049589 0.163105 0.330562 -0.218842 0.216611 -0.140148 0.0959675 -0.197267 -0.198748 -0.10298 -0.389582 0.0629998 0.381782 0.0740237 -0.218931 -0.100298 0.0313738 -0.17708 -0.232593 0.134645 0.00392536 0.213662 -0.501078 0.0145922 0.541886 0.245813 0.0274361 0.0171631 0.214959 -0.0602222 -0.0652998 -0.105394 -0.172677 0.00209586 -0.154527 -0.0488619 -0.114916 -0.23521 0.120311 0.190017 0.221553 -0.163627 0.0689852 0.105198 0.315621 0.120268 0.270683 0.42826 0.142581 -0.0127422 -0.213004 0.258283 -0.107602 0.265584 -0.171131 0.237847 -0.0913961 -0.172239 -0.199306 0.0445944 0.0476473 -0.180191 -0.209618 0.132863 0.154445 0.0819907 -0.317515 0.192779 0.0856267 0.213884 0.00295438 0.174723 -0.117685 0.443333 0.223131 0.134488 -0.31367 0.0612114 0.0784282 0.391447 0.0817828 -0.342844 0.200031 -0.162007 -0.0496062 -0.229517 0.00682398 0.272035 0.190061 -0.280611 0.216266 0.331924 0.320033 -0.0217127 0.39652 -0.221903 0.403337 0.0079157 0.0818537 -0.18583 0.0573391 -0.0712245 -0.160881 -0.0300589 -0.422633 -0.115024 -0.0628188 -0.272783 0.196211 0.205569 -0.25194 0.0676757 0.112144 0.184372 0.067717 0.093931 0.10706 0.0781396 -0.158303 0.23908 -0.290015 -0.326525 -0.0513717 -0.339944 -0.0332399 0.10281 -0.208044 0.171192 -0.15341 -0.0348404 -0.114354 0.0939506 0.0444174 -0.0920531 -0.0975841 -0.0584458 0.176929 -0.0887113 0.0156683 0.356388 -0.114344 0.160322 -0.145115 0.0389489 -0.00031187 0.0270624 -0.131878 -0.0489406 0.204333 0.293315 -0.225489 0.115852 0.152425 -0.106675 -0.345979 -0.00265946 -0.268039 -0.332045 -0.131678 0.154891 -0.0236066 -0.409401 0.0477205 0.192419 0.175418 0.154325 -0.049789 0.278073 0.0352748 0.126426 0.262552 0.120017 0.465311 -0.327403 -0.0558753 -0.315644 -0.0847664 0.278 0.0732729 -0.177941 -0.134948 0.0455496 -0.25334 -0.0789667 -0.0427759 0.175054 -0.0173739 0.0532406 -0.126272 0.0413784 0.102931 0.135717 0.0102391 -0.196485 -0.167349 0.048615 0.0782254 0.061768 -0.133185 -0.00933509 0.0434474 -0.0394015 0.234607 0.201796 -0.0168131 0.00358305 0.129913 0.0387537 -0.0343197 -0.20205 0.126404 -0.342011 0.235597 0.197718 0.0696874 -0.103524 -0.257463 0.251518 0.249583 0.225744 -0.0644736 0.145445 -0.274023 -0.113764 0.176376 -0.400535 0.26468 -0.016683 -0.0896495 0.529502 -0.06659 -0.350618 -0.0720131 0.0686896 -0.204065 0.201713 0.263303 0.0708537 -0.0961284 0.2357 -0.0973858 0.173579 -0.15557 -0.164882 0.16 0.0166551 0.0698758 -0.12956 0.12929 -0.296106 -0.190748 0.0476892 0.194435 -0.162053 0.496739 -0.240813 -0.155459 -0.170693 0.106985 -0.121716 -0.0129452 0.0763489 0.356404 0.189475 -0.0978139 -0.191052 0.127125 0.084419 0.259544 -0.0916418 0.106018 0.105041 -0.0236215 -0.00424293 -0.0161964 0.0727802 0.000229964 -0.155653 -0.14992 -0.0856143 0.0727934 -0.107672 0.213033 -0.164813 0.538612 -0.305468 0.238183 -0.013174 0.240012 0.134243 0.0694532 -0.0753701 0.197911 0.11873 0.103255 -0.155571 -0.0762672 -0.268418 0.00283663 0.00970839 0.18657 0.0858591 -0.174348 0.17169 0.158242 0.543492 0.155473 0.0541565 0.219921 0.092454 -0.0556139 0.276854 0.128872 -0.119119 -0.260285 -0.172648 0.111637 -0.0299207 -0.252877 -0.228796 -0.117644 0.0902908 -0.295452 0.237959 -0.0239676 -0.191852 0.0557735 -0.0585463 0.269909 -0.0814658 -0.216092 0.236795 -0.0674829 -0.0829269 0.0741571 -0.268569 -0.4594 -0.296175 -0.109198 0.212298 0.0589188 -0.255401 -0.181882 0.249072 0.367654 0.070821 0.211837 0.036708 0.215869 0.0509266 0.122582 0.0955974 -0.11233 -0.128827 -0.186826 -0.173944 0.15141 0.0432384 -0.39285 0.037272 -0.136107 -0.0519885 0.0827349 0.202545 -0.173281 -0.142262 0.16013 -0.0176733 -0.0438444 -0.16808 0.282824 0.223446 0.1022 -0.0917806 0.0597009 -0.193113 0.0161645 0.0430347 -0.113614 -0.0349991 -0.0500425 0.47366 0.0607715 -0.222416 0.0379208 0.156408 0.357113 -0.125333 0.347747 0.0610208 0.0702712
wizard -0.0658051 0.219434 -0.0509569 -0.13099 -0.398017 0.259903 0.261842 0.0281494 -0.197459 0.00287588 -0.0380333 0.320174 0.104506 0.284321 -0.029672 -0.108963 -0.0668469 -0.0252734 -0.0364936 0.336887 -0.51721 -0.129705 0.0195034 0.0768923 0.265833 0.247329 -0.161309 -0.248984 -0.144628 -0.223753 0.094647 0.404624 0.013158 -0.049366 0.190155 0.194651 0.217038 -0.208701 -0.0882296 0.0301456 -0.0508323 -0.00206714 -0.0682855 -0.225988 -0.172816 0.0995669 0.0186207 0.0668715 -0.0741268 -0.422645 -0.508099 -0.0151196 0.174178 0.012435 -0.177914 0.198849 -0.128763 0.0207418 -0.144207 -0.49461 -0.0146494 -0.0956579 0.254188 0.30516 -0.0243266 -0.0669446 0.239132 0.299123 -0.0627167 -0.0165213 -0.0376334 0.203483 0.296774 -0.291941 0.124182 0.386085 0.0691371 -0.0686192 -0.0232774 0.185194 0.0836542 0.474391 -0.186637 0.0510461 -0.268982 -0.0401558 -0.0810118 0.167446 -0.0826397 0.23249 -0.0662665 0.0724418 -0.010308 -0.599554 -0.396453 -0.14573 0.108998 0.302377 -0.330028 -0.182673 0.275253 0.305128 0.297104 0.085449 0.247021 -0.46152 -0.301254 -0.616827 -0.219598 -0.338813 0.283162 -0.547839 0.427796 -0.237511 0.0584033 -0.0358376 0.329127 -0.0730602 -0.122558 -0.212048 0.215576 0.0311743 0.215286 0.527635 0.116151 -0.226496 -0.347327 -0.107462 0.254776 -0.216961 -0.198887 0.0969159 -0.209218 0.0913762 0.15981 -0.210721 -0.381598 0.0308131 0.282265 -0.167725 0.073066 -0.0267656 0.0217219 0.244397 -0.0253542 0.199448 0.120729 0.182615 -0.0953109 0.0636515 -0.103015 -0.158381 -0.0251467 -0.162504 -0.174171 0.0204923 -0.151136 0.139543 -0.341632 -0.470531 -0.0110116 0.124758 -0.104155 -0.0742681 0.112501 0.340945 0.059379 0.0226568 0.201518 0.0789114 -0.0967682 -0.372198 0.0125631 0.0818112 -0.0414511 -0.405179 -0.273287 0.0954879 -0.324245 0.114485 -0.228614 -0.056694 -0.293953 -0.132952 0.210642 -0.431934 -0.218048 -0.0749767 0.182656 0.0797247 0.232788 -0.253022 0.0160582 0.376533 -0.170084 0.106593 -0.360223 -0.0327855 0.100308 0.0727333 0.097639 -0.150622 0.0517782 0.260859 0.0365961 -0.323638 -0.225583 0.0476785 0.365661 0.163471 0.0887383 0.267923 0.0901205 -0.776084 -0.203104 -0.148598 0.105988 -0.0185223 -0.586638 0.524975 -0.34887 -0.0501629 0.298057 0.369044 -0.0989432 -0.355728 -0.170682 0.198969 -0.164012 -0.204282 0.176693 0.0189733 -0.0509385 0.213197 0.220058 0.098375 -0.135749 -0.29234 -0.280618 0.221765 0.362034 -0.110423 0.451814 0.00295809 -0.340753 0.0454468 0.217949 -0.039326 0.257454 -0.162996 0.481066 -0.419691 -0.235353 -0.0180848 -0.248544 0.179137 0.0137406 0.0800128 0.330146 -0.739338 -0.508377 -0.263923 -0.195106 0.163439 0.364914 0.0661096 0.325966 0.252334 0.172676 -0.255828 -0.254581 -0.429155 0.0117766 -0.0195009 0.0155804 -0.126007 0.240135 0.0907314 0.2089 -0.137347 0.167757 0.519426 -0.284412 -0.242115 -0.0355782 0.290273 -0.195648 0.00527202 0.208179 -0.102103 0.264786 0.092105 0.190932 -0.00476366 0.0326059 0.0428217 0.123186 0.300177 -0.00919387 0.298547 0.501722 -0.455907 0.246553 0.0757235 -0.141205 0.255548 -0.39434 0.455607 -0.147237 0.562889 -0.140672 -0.154225 -0.140521 -0.160593 0.195883 0.50972 -0.230468 0.13386 -0.0475602 0.0668193 0.453797 0.0975933 0.000593068 -0.0657991 0.180961 -0.221778 -0.0868609 0.603758 0.0257653 -0.0706102 -0.142627 0.148618 -0.0743676 -0.189549 -0.334527 0.31397 -0.220726 0.157596 0.0595193 -0.007295 0.132857 0.232526 -0.160571 0.226811 -0.280505 -0.190435 -0.226843 -0.251532 0.118812 0.16763 -0.280421 0.352519 -0.031571 -0.0665275 0.0537203 0.262242 0.194796 0.283851 -0.168346 0.19385 -0.339821 0.138674 -0.259296 0.0502676 -0.186908 0.237599 0.330771 -0.350158 0.129963 0.0195026 -0.120376 -0.0158335 -0.139594 0.221865 -0.172031 0.104457 -0.352642 -0.0414098 -0.402506 0.25073 0.0922875 -0.00160877 0.15532 0.23715 0.0866334 0.11876 0.388041 -0.0448678 -0.0727594 -0.429374 0.200468 -0.126876 -0.183866 -0.279758 0.0966043 -0.281889 -0.141812 -0.0302295 -0.00247305 -0.0437441
disability -0.253336 0.0972867 -0.537118 -0.328271 -0.147602 -0.00342372 0.108484 -0.072743 -0.272354 0.660194 0.170896 0.0609563 -0.123844 0.107939 0.166357 0.35339 0.0507427 -0.131277 -0.163532 -0.232512 -0.44276 -0.111241 0.100347 0.0834333 0.138979 0.122648 -0.519527 -0.381854 -0.16449 -0.0410361 -0.250604 0.0289181 0.249895 0.0819489 -0.024107 -0.133638 -0.562907 0.340683 -0.161437 0.108431 -0.103206 0.0732077 -0.0501923 0.302402 -0.271482 -0.114975 0.242833 0.0937219 -0.0875662 -0.0125077 0.177574 -0.158061 0.0219649 -0.157929 0.116395 0.0297901 0.273327 0.0845984 -0.407469 -0.23227 0.124584 -0.217809 0.16116 0.363301 0.158094 0.534706 -0.328855 -0.104655 0.210247 0.0733208 -0.0447758 0.243033 0.112601 0.236849 0.0596182 0.0337022 -0.325953 0.0458111 0.288316 -0.30173 -0.0304371 -0.203275 -0.0825728 -0.11573 0.23023 -0.02572 0.276714 0.15071 -0.30275 0.466089 0.127506 -0.0150974 -0.00249299 -0.168192 -0.103186 0.0720858 0.160419 0.00421927 -0.083437 -0.0257698 -0.0145863 0.0340031 -0.128809 -0.23383 0.103706 -0.211685 0.176658 -0.0214482 0.0698664 0.452034 0.107587 -0.025423 -0.615324 0.211114 0.00586156 -0.246538 -0.260833 -0.184795 0.363271 -0.21417 0.111893 0.18972 0.16928 0.239176 0.00718368 0.0210544 -0.252172 0.0279369 0.186945 0.130591 0.250211 -0.168037 -0.0790529 0.375823 0.0395355 0.077601 0.167622 0.0765811 -0.272653 0.15326 0.0808101 -0.039946 0.0727841 -0.234225 0.0784843 -0.273008 0.0683541 0.187476 -0.455339 -0.142012 0.0249183 0.239141 0.133762 0.0946912 0.118005 0.127535 -0.0251789 0.0315405 -0.438134 0.231834 -0.151049 -0.237822 0.18003 -0.00809558 0.115996 0.299031 -0.279764 -0.0873043 -0.349214 0.226563 -0.119686 0.200025 0.133819 -0.151949 0.0126072 -0.51088 0.102609 -0.071622 0.290017 0.323952 -0.193796 -0.104415 0.148759 -0.351743 -0.20472 -0.416032 -0.0836552 0.12588 0.00965745 0.062848 -0.135288 -0.0688543 -0.00681132 0.240682 -0.132398 0.364085 -0.000836775 -0.0398866 0.0980819 0.477373 0.104812 -0.12042 -0.278816 0.22802 -0.0872963 -0.0121029 -0.420042 0.32586 -0.06574 0.0704068 -0.179936 0.163212 0.00458698 -0.0916226 0.0715095 0.0357914 -0.171957 0.0279988 0.179282 -0.223701 -0.000311936 -0.143721 0.203166 0.200424 -0.0873891 -0.173594 -0.144869 0.19103 0.28028 -0.0576851 -0.116205 -0.282092 0.142322 0.18068 0.360748 -0.206018 -0.0886617 -0.125505 0.336213 0.188136 0.263351 0.119646 -0.0754626 -0.127942 -0.0292077 0.167844 0.145862 0.240454 0.00978647 0.321433 -0.0391371 0.203023 0.0115706 -0.214834 0.29344 0.321834 0.177334 -0.134228 -0.143026 -0.180093 -0.235451 -0.130205 -0.312167 -0.152751 -0.431805 0.125676 0.584171 0.0643227 -0.138262 0.00872618 0.130477 0.275359 0.0792394 -0.0508392 0.0474677 0.0609339 0.182556 -0.0246494 0.222354 0.109992 0.321424 -0.479908 -0.367582 0.26007 -0.366048 -0.290313 -0.499614 0.0170522 0.183796 0.156968 0.0529347 0.23549 0.0580001 -0.00686485 -0.074131 0.410183 0.211616 0.0105801 0.00286246 -0.623097 -0.170442 0.289002 0.0277638 0.317445 -0.309563 0.0136893 0.0150881 -0.0650265 0.460058 0.133197 0.21456 0.285517 -0.158598 0.270396 0.0527778 0.236964 0.0993854 -0.0393871 -0.149213 0.160404 0.105 -0.177891 0.207766 0.221249 0.230618 -0.293 0.113206 -0.196394 -0.0366872 -0.140539 0.180052 0.104264 0.421212 -0.326929 -0.0122996 0.0581173 0.153771 0.315048 0.0603505 0.449181 -0.138245 0.0212813 -0.252071 -0.148404 -0.0154085 -0.290361 0.0815979 -0.229989 0.0695074 -0.0720303 -0.0355577 0.190813 0.261733 0.407336 -0.292565 -0.200485 -0.290928 0.428394 0.303512 0.22168 -0.24487 0.360205 0.178132 0.226865 0.170667 0.0593728 0.0840954 0.467424 0.308513 0.187663 -0.254886 -0.032785 0.0935093 -0.0359238 0.105032 -0.210176 0.0767838 0.0996232 0.0843541 -0.12343 0.0994365 -0.228605 0.250776 0.341647 0.158743 -0.0106759 0.448881 -0.301053 -0.183917 0.219104 0.270455 0.0872764 -0.0511561 -0.0903078 0.338585 -0.124653 -0.00875246 0.128669 0.223448 0.347126
environment -0.0700442 0.243921 -0.142471 -0.0182147 -0.227912 -0.0910823 0.140735 0.0227902 -0.0507893 0.00615065 0.26482 0.0320888 -0.0716812 -0.0186845 0.230063 0.273961 -0.155494 -0.178633 0.120486 0.0941416 -0.0463744 0.225686 0.166771 0.109754 0.235283 0.101625 -0.00282428 0.285395 0.219379 0.241548 -0.0700855 0.0685922 0.196317 0.0829465 0.100554 -0.0508246 -0.316392 -0.110683 0.238947 0.0610742 -0.293083 0.0330645 0.0617511 0.059146 -0.121899 -0.0981243 -0.217035 0.0433874 0.0202457 -0.0340939 0.189685 0.155579 0.0561962 0.209556 -0.335054 -0.159186 0.275981 -0.107484 0.0618174 -0.0576501 -0.129628 -0.167199 -0.0323313 -0.128362 -0.0664176 -0.0663548 0.0305298 0.0637896 -0.237379 -0.0195744 0.0954718 -0.106115 -0.0975251 -0.0948805 0.285474 -0.0866318 -0.215388 0.224641 0.0758906 -0.0759064 0.0593416 0.1356 0.0171887 -0.0147619 0.128245 0.0429242 -0.241872 0.234281 -0.0387591 0.166148 0.0311235 0.208049 -0.027882 -0.159496 -0.104838 -0.199639 -0.11005 0.177662 0.22342 0.300869 0.0282039 0.282486 -0.319765 -0.0940105 0.0830933 0.000283756 -0.245022 0.174922 0.119202 0.417611 -0.0668234 -0.330262 -0.202774 0.207455 0.0514429 0.0472618 -0.0815136 0.0852439 -0.199055 -0.197031 -0.0225946 0.0834346 -0.181756 0.295004 0.137817 0.0377809 -0.0378069 0.107554 -0.279868 0.0672963 -0.454652 -0.117051 0.14383 -0.022088 -0.0492498 -0.101274 0.184119 0.10685 -0.0820594 -0.0812714 0.00315629 -0.344503 0.153478 -0.0742993 -0.102435 -0.0183172 -0.311499 -0.0201586 -0.0672784 -0.0497123 -0.119608 -0.155544 -0.143945 -0.105034 -0.272238 0.478535 -0.130888 0.0171858 -0.136849 0.0150655 0.0323209 0.0994986 -0.14055 -0.128801 -0.224269 0.162347 0.030186 0.0704963 0.0844662 0.0222313 -0.000428718 -0.267819 0.167424 -0.138044 0.0344777 -0.129284 -0.0789515 -0.0959219 -0.246396 -0.0934166 -0.165664 0.276008 0.0218758 -0.203679 -0.0103688 -0.268689 0.138004 0.135702 -0.118371 0.118641 -0.188896 -0.174993 0.0275589 -0.160159 -0.207396 0.250478 -0.0156785 -0.283919 0.0459603 -0.0365586 -0.079232 0.301808 -0.00296199 -0.191571 0.0379556 -0.216742 0.12341 -0.10026 -0.314751 -0.276365 0.0766371 0.361995 -0.0837209 -0.0970923 0.308925 0.233888 -0.334122 -0.344652 -0.019811 0.285711 -0.0647748 0.0761812 0.0429061 -0.163474 -0.216797 -0.0881492 -0.16226 0.112472 0.0549379 -0.010232 -0.348065 -0.00503886 -0.120642 0.0237663 -0.0342464 0.240676 0.162747 -0.100744 -0.138457 0.0263517 0.345034 -0.225071 -0.273781 -0.0498 0.0130969 -0.100288 -0.171989 0.114678 0.395457 0.160898 0.28351 0.129809 -0.0196297 0.0905927 0.225747 -0.156636 0.26927 -0.0791875 0.119805 -0.143613 -0.239071 0.0318205 -0.220783 -0.134693 0.364958 -0.658956 0.385372 0.142391 0.164221 -0.0771712 0.0685892 0.134091 0.050566 0.123203 0.0682247 0.355315 0.281449 0.117004 -0.0300459 -0.117404 -0.0432832 -0.222055 -0.0678435 -0.144378 -0.330926 -0.213873 -0.099179 -0.0844582 0.186251 -0.0650405 0.194234 -0.184368 0.00602679 0.203827 -0.169572 -0.0734013 0.0418632 -0.0292785 0.131639 -0.042681 -0.136024 0.0872028 -0.0200002 -0.0102458 0.109844 0.00806708 -0.14281 0.0379783 0.332733 0.0715992 0.15089 -0.150404 0.18328 -0.176527 -0.157171 0.062249 0.318735 -0.236379 0.365548 0.240584 -0.186434 0.0509853 0.252514 0.0752719 0.203005 -0.173608 -0.000618223 -0.140808 -0.281354 -0.494011 -0.0879445 0.0717441 0.109848 -0.302969 -0.131642 0.18281 0.320406 -0.111064 -0.223249 -0.0143548 -0.479608 -0.219618 0.00380795 0.0218189 0.130524 -0.163262 -0.0663688 -0.0771026 -0.0911907 0.10953 0.0640986 0.604321 -0.130733 0.103496 -0.0322688 -0.144015 -0.0374032 -0.0450454 0.233558 -0.155426 -0.049304 0.0712467 -0.113435 0.232321 -0.21767 0.236218 -0.00539107 0.178968 -0.00442745 -0.258993 -0.156822 -0.100088 -0.2211 -0.00449107 0.129885 0.0783109 0.0408352 -0.121657 0.246134 0.171699 0.1567 -0.158372 -0.0210668 -0.225162 0.0373759 -0.0483581 0.144325 -0.0105101 0.332306 -0.0109096 -0.00163915 0.248638 -0.116536 0.185252 -0.020205 0.271741 -0.226262 0.0800475 0.0402832 0.0586702
terror -0.324394 -0.3005 -0.369461 -0.395852 0.271322 -0.175569 0.0845921 0.154745 -0.367999 0.301502 -0.0515916 0.102902 -0.249059 0.0302763 0.326118 0.133797 0.170172 0.121802 -0.275432 0.112346 -0.122963 0.019301 -0.283386 0.0541131 0.0964914 -0.378049 -0.0228757 -0.0503216 -0.20446 -0.244712 0.00227121 -0.228398 -0.174972 -0.198098 0.176457 0.0689412 -0.223111 -0.177974 0.188941 -0.0355866 -0.0972788 0.21332 -0.0344989 0.0774175 -0.260528 0.0397471 0.168666 0.0226533 0.254059 0.0363047 0.0694625 -0.0807942 -0.0589591 -0.247392 0.0186531 0.0478505 0.31962 -0.121726 -0.170629 -0.213573 -0.153006 -0.485371 0.0386416 0.1016 -0.0121975 -0.408422 0.0623 0.0424459 -0.125655 0.00541011 -0.0437944 0.223402 0.00846179 0.0844954 -0.139096 -0.0382616 -0.584367 -0.0966332 0.221444 -0.0111929 0.127115 0.473479 0.201558 0.0628292 0.101899 -0.0659663 0.0840819 0.192151 0.434896 -0.0145648 0.0394665 0.0940126 0.14553 -0.463694 -0.0492894 0.171842 0.296026 0.290738 0.13205 0.165791 -0.0148758 0.16957 0.289829 0.346685 0.1252 -0.0204122 -0.142061 0.0428607 -0.172046 -0.0125634 0.014842 -0.0567708 0.233729 -0.189187 0.0669105 0.057116 0.0423271 -0.0981536 0.191237 -0.240186 0.43667 0.412422 -0.265262 0.196629 -0.0369702 0.0500656 -0.030929 -0.206811 0.33904 -0.193115 -0.0308002 0.0218652 -0.230905 0.607926 0.116079 0.185572 0.148287 -0.188418 -0.294697 -0.268332 0.0967695 -0.0382455 0.0629438 -0.20297 0.109945 -0.262277 0.080902 -0.0865009 -0.000198452 -0.179956 -0.133081 -0.0914009 0.197646 0.467325 -0.0394461 0.108243 -0.00823692 0.146528 -0.210436 -0.370321 -0.00849249 0.20279 -0.0118162 0.0800758 -0.204306 0.242543 -0.0130111 0.217052 0.179172 0.093411 -0.116513 -0.171075 0.142262 0.140644 0.334153 0.0979545 0.0913787 0.223638 -0.241235 -0.35697 -0.339366 0.184897 -0.232366 -0.0658879 0.00278732 -0.263134 0.384425 0.0765294 -0.149142 0.0580537 -0.195117 0.079142 0.109023 0.0891908 0.034618 0.333709 0.193157 -0.0654182 -0.319107 -0.502014 0.327421 0.0390058 -0.133457 -0.0368964 0.265363 -0.0342047 0.0283142 -0.163021 -0.130389 -0.0507736 0.0157457 0.0401413 0.0314675 0.183429 0.0143299 0.0626314 0.075534 0.076412 -0.0504456 -0.274383 0.526986 0.0425203 -0.0363152 -0.202471 -0.197813 -0.208901 -0.175463 0.442438 0.182983 -0.42838 0.101986 0.286005 -0.207867 0.175288 0.117949 -0.154565 -0.283168 0.116992 0.393276 -0.0898564 0.204246 0.373095 0.359208 0.0715817 0.130839 0.131081 -0.40317 0.29798 0.258983 -0.290419 0.0658003 0.00243069 -0.106753 0.0370616 0.185098 -0.0223974 0.12272 0.0413111 -0.225109 -0.0860798 -0.217474 -0.228209 -0.267354 -0.0181026 0.140891 -0.0825101 -0.255954 -0.101801 0.143375 -0.0602281 -0.0262749 0.147845 -0.143662 0.413183 -0.448761 0.0738248 -0.308446 0.4287 0.142917 -0.310029 -0.158015 0.0186545 0.00518466 0.0360283 0.150306 0.0959893 -0.181424 0.244903 0.329458 0.216889 0.258257 0.208002 0.123941 -0.0658879 0.0558878 0.164236 -0.109614 -0.27906 0.39985 0.133818 -0.0847403 0.225824 -0.0291344 -0.0448948 0.0926366 -0.0927645 0.078487 0.181847 0.0091132 0.0220321 0.0240459 0.318181 -0.197656 -0.223745 -0.105505 0.0834189 -0.104184 0.363049 0.204016 0.27257 -0.102982 0.186341 -0.32649 0.485526 -0.0397042 -0.0293342 -0.193464 0.250581 -0.203806 -0.00283408 0.318269 -0.261209 -0.149055 -0.455453 -0.257957 0.406465 -0.317388 -0.124274 0.0346513 0.252067 0.249437 0.189611 0.153359 -0.0556167 0.00627211 -0.0387584 0.056173 0.101716 0.0943956 0.277039 0.295443 0.21691 0.0241779 0.0667877 -0.252872 0.0844444 -0.029721 0.118537 -0.461284 0.127537 -0.0733995 -0.115428 -0.270598 0.234781 -0.123133 -0.116954 -0.161468 0.103507 0.349624 0.270213 -0.0724413 -0.0373926 0.317683 -0.0123914 -0.334412 0.138778 -0.28151 0.0181514 0.258806 0.237784 0.0965725 -0.38185 -0.245141 0.14432 -0.277885 0.0712519 0.344744 -0.300526 0.317132 0.0625715 0.0117423 0.0931403 -0.0180212 0.127482 -0.0622243 0.485414 0.187489 0.318264 0.0251691 -0.0676285
smile -0.295875 0.414172 0.0831109 -0.320607 -0.397702 -0.260956 0.15744 0.28985 0.164789 0.102492 -0.235075 -0.0541736 -0.215216 0.422854 -0.00557783 -0.124148 -0.243507 0.00768604 0.125106 -0.0821847 -0.054678 0.09884 0.036291 -0.0175326 0.226102 -0.230331 -0.317166 -0.0605646 0.133887 -0.429916 0.196972 0.112758 0.0226705 0.0894497 -0.0975799 0.155559 0.128662 -0.146405 -0.034072 0.00974494 -0.285899 -0.102399 -0.0280086 -0.0661215 -0.320536 0.0487536 0.345612 0.0140638 0.157423 -0.144193 -0.188417 0.172184 0.0793915 0.0865946 0.00284327 0.280408 -0.131684 -0.206251 -0.266602 -0.0362159 0.0863812 -0.473713 0.235967 -0.196451 0.0361962 -0.108875 0.0324288 0.332958 0.176052 0.0806672 0.069638 -0.102915 -0.139085 -0.0344708 -0.0102177 -0.0585729 0.0365742 -0.199399 0.155333 0.164264 0.389146 0.178783 -0.0863556 0.0200736 0.096901 -0.149918 0.171117 0.0453969 0.0508456 -0.0229595 -0.0888178 0.100334 0.0571042 -0.215557 -0.454292 -0.182162 -0.186359 -0.215954 0.0320551 0.0901751 -0.319099 0.249622 -0.0843706 0.0325859 0.154186 -0.294914 -0.225525 -0.0816289 -0.185467 0.431766 -0.241661 0.0559545 -0.192659 -0.14384 0.0187865 -0.188056 0.0489946 0.00584985 0.0495045 0.0486676 0.0289722 0.221852 -0.0977486 0.0933246 0.256836 0.0134302 0.180701 0.0594941 0.0745264 -0.014617 -0.0676976 0.10546 -0.0619631 -0.0255511 -0.0592646 -0.0917636 -0.0555556 -0.252658 -0.121052 -0.0843045 0.0572374 0.0971636 0.309488 -0.287785 0.0905972 -0.0491168 0.0098025 -0.0270038 0.048698 -0.541871 -0.189452 -0.394375 0.197088 -0.0819687 -0.179776 0.0700215 -0.181276 0.29912 0.0448066 -0.301842 0.174882 0.0855259 0.153962 -0.174698 0.123295 -0.318983 -0.00619807 -0.104233 -0.2756 -0.246112 -0.0319641 0.153606 -0.406323 -0.0499128 0.00438818 -0.00446625 -0.11304 0.0590857 -0.141635 -0.0249405 0.00118474 -0.0588146 -0.223145 0.0744081 0.3198 -0.163879 -0.125366 0.0763118 0.26089 -0.156019 -0.28377 -0.287619 -0.0457571 0.157698 0.15496 -0.0454136 -0.0234625 0.00403544 0.220255 -0.106309 -0.0142001 0.0768213 -0.093061 -0.0403516 -0.0825688 0.111759 0.287895 -0.263975 0.0417217 0.263557 0.259837 0.0866612 0.12895 0.244808 -0.0539015 -0.104931 -0.0969658 -0.163605 -0.08953 0.0764374 0.0408449 0.162118 0.118743 -0.163518 0.121191 -0.21444 -0.217092 0.0567759 -0.173794 0.130065 -0.0743924 -0.175209 -0.156781 0.055359 -0.2218 -0.00861644 -0.0560525 -0.200311 0.130437 0.297585 0.381036 -0.0466661 0.325988 -0.181211 -0.0344294 0.201004 0.0236517 0.0636993 0.0843921 -0.0022283 0.0254294 0.132117 0.105505 0.113242 0.0658398 0.107767 -0.125211 0.0858634 0.122225 0.0208877 -0.209215 0.0869373 -0.497589 0.313219 0.417266 0.211383 0.0150433 0.0773862 0.210722 -0.0269258 0.0656723 -0.129627 0.225502 -0.285425 -0.12309 -0.344023 -0.0596207 0.148629 0.325688 -0.0448236 -0.0608364 -0.0786762 -0.0168627 -0.397124 -0.234864 0.172864 -0.211112 0.155625 0.0565572 -0.325049 0.312619 0.0808312 -0.107001 0.0337311 0.176304 -0.130053 -0.0176048 0.0782187 0.629547 0.183109 -0.188662 0.0533577 0.0162583 -0.117649 0.0256218 0.175397 0.0226893 0.00426623 0.145855 0.25745 0.388176 0.00526414 -0.133867 0.0555226 -0.235022 0.237339 -0.0382013 0.629099 -0.0689744 0.174884 0.224872 0.119273 0.0384301 0.133793 0.177508 -0.158257 -0.255174 -0.0331697 0.158263 -0.237045 0.0421959 0.104685 0.478257 -0.0340749 -0.0566684 -0.109313 0.193908 0.0856241 0.0619695 -0.102264 0.0834248 0.30004 -0.120128 -0.175061 -0.0662725 -0.377703 -0.387877 -0.645 -0.0163018 -0.204366 -0.0770124 0.264004 -0.171868 0.385666 -0.0766185 -0.406894 -0.045423 0.0971683 -0.158486 0.138011 -0.249563 -0.152953 0.381602 -0.0327088 0.134969 -0.211876 0.393878 0.0463232 -0.0139992 0.237938 0.186164 0.0833332 0.174709 -0.160247 0.438878 0.16522 0.0263665 -0.0807386 -0.00855223 -0.0608803 0.190479 0.140079 0.0492615 -0.194198 -0.184527 0.126524 0.143014 -0.12106 -0.478962 0.0669629 0.169034 -0.139755 -0.228209 -0.0356212 -0.314002 -0.104576 -0.0250023 0.404322 0.038554 0.193282
woman -0.0527794 0.15895 -0.124231 -0.426529 -0.138221 0.0293608 0.0659611 0.303472 -0.173767 0.187394 0.0751594 0.315388 -0.107382 0.0172386 0.149809 0.0131996 -0.242734 -0.102938 0.154821 0.130054 -0.354466 0.184055 0.305594 -0.103443 -0.351434 0.164204 -0.0468871 -0.099364 -0.182769 -0.349507 -0.204801 -0.123706 -0.073816 0.111597 -0.31139 -0.250297 -0.312027 0.00285676 0.0493167 0.039371 -0.387837 -0.143859 0.18725 -0.470553 -0.0151919 -0.178679 0.141618 0.279065 -0.13151 0.0127031 -0.0905843 -0.0465609 0.133851 -0.0434754 0.153737 0.29699 0.0367965 0.290238 0.0266429 0.0533216 -0.113675 0.0600356 0.0668808 -0.103632 0.2164 -0.0233326 -0.45358 0.0329899 0.275327 0.10666 -0.274199 0.175302 -0.148902 0.0957067 0.127546 -0.139141 -0.293889 -0.121455 0.267718 0.175845 0.0696132 0.128253 0.111852 0.206935 -0.0481099 -0.174739 0.102734 0.0436077 0.105153 0.0550105 -0.156969 -0.0668003 -0.19495 -0.321922 0.0942748 0.0832705 0.200313 0.177272 0.149762 -0.0574646 -0.114707 0.173502 0.289763 -0.126086 0.0702035 -0.00513978 0.234295 0.0287678 0.0539082 0.0643934 0.105931 -0.0721404 0.238217 -0.181062 0.073925 0.0632832 -0.0832261 -0.0946074 0.125329 -0.230696 0.171868 0.0639207 -0.10496 0.260841 0.33102 0.166907 0.109568 0.192827 0.031269 0.100009 -0.0883899 -0.0670618 -0.37996 -0.245603 0.125511 0.0966925 0.0560117 -0.00719197 -0.116002 -0.085748 0.0373221 0.0321158 0.198661 0.0885395 -0.124133 -0.00418666 0.211697 0.261812 -0.250868 -0.303848 -0.0618898 -0.0242461 -0.119322 -0.0127597 0.051423 0.175012 -0.354132 0.0867298 0.0675691 0.207326 -0.0928163 -0.21471 0.0110906 -0.0535478 -0.00466627 0.0914872 0.103217 0.0763066 -0.0362904 0.00205822 0.0487689 0.3658 0.152891 0.136531 0.26128 0.134995 0.0759059 0.0295241 0.157551 0.00847399 0.00386415 0.141355 0.022317 -0.279876 0.0240516 -0.276151 -0.172301 -0.121442 -0.0440058 -0.025237 -0.0528667 -0.0894879 0.256485 0.149425 -0.0348861 -0.353817 0.0781828 -0.0448541 -0.140999 -0.000744804 0.202744 0.0790642 0.0556843 -0.231559 -0.114713 -0.255843 0.125523 0.0239731 -0.179729 -0.184868 -0.17752 0.374889 0.0396744 0.200778 -0.119256 0.0792692 -0.0898884 0.055545 0.0171179 -0.281702 0.353688 -0.0386444 -0.0527805 -0.265755 -0.173516 -0.066919 -0.229572 0.228556 0.148071 0.302212 -0.106935 -0.0746919 0.0127556 0.228945 0.056963 -0.162071 -0.0608461 0.0124446 0.285984 0.23163 0.0518174 0.0351023 0.224616 -0.21348 0.0975603 0.486102 0.0338983 0.263454 -0.0599537 -0.151987 -0.0620297 0.0215584 0.181234 -0.214658 0.0802805 0.243734 0.14655 0.092774 -0.122078 -0.267053 -0.231184 -0.145421 -0.145981 0.239991 0.226927 0.251928 -0.072294 0.0101487 -0.0512978 -0.0701453 -0.084694 -0.224528 0.577991 0.120256 -0.242641 0.100744 0.00858755 -0.028668 -0.394161 0.10449 -0.298859 -0.110216 0.0762807 -0.135625 -0.013327 0.210604 -0.137454 -0.123601 0.270043 -0.171172 0.184432 0.157544 -0.0946601 0.0137385 -0.164163 0.0230395 -0.138603 -0.0795958 -0.0250053 -0.0624866 0.0237776 -0.0746784 0.182407 -0.0992156 -0.207524 0.242392 -0.188803 0.108142 0.000513867 -0.0225095 0.0918837 -0.0963053 -0.0791348 0.0104261 -0.0250904 0.208566 0.118717 -0.0174745 0.0958676 -0.297785 0.255572 -0.13347 0.319592 0.265517 -0.269758 -0.135941 0.023869 0.151443 -0.102928 -0.426483 0.0378661 -0.0465123 0.0836596 -0.226797 -0.201496 0.00774894 0.0129431 -0.0759856 0.00670044 -0.181821 0.0499532 0.237438 -0.324804 -0.350396 -0.209215 -0.102342 -0.261067 -0.177594 0.16539 -0.248372 -0.290397 0.0520101 -0.149926 -0.0289565 0.0499451 0.0917872 -0.0339459 0.224782 -0.17971 0.111624 -0.164356 -0.138427 -0.145516 -0.187906 -0.0342896 -0.381172 0.52814 -0.094329 0.0424445 -0.0178185 0.28033 0.13532 0.172437 -0.122352 -0.0605819 0.121394 -0.254037 -0.163124 -0.0809813 -0.11539 -0.116426 -0.0156696 -0.0719062 -0.216284 0.136843 0.0345451 0.297007 -0.297779 -0.210922 -0.0456178 0.0751703 -0.0618064 -0.00921467 -0.164011 -0.0801596 -0.00723405 -0.154754 0.0120598 0.178964 0.0618925
string -0.0919807 -0.128271 -0.264337 -0.14007 0.0588427 -0.227474 0.0348186 -0.178145 -0.230086 -0.0355292 0.0322927 -0.0874481 0.0539929 0.235795 0.0371695 0.446734 -0.0553521 -0.0132774 0.0342459 -0.0101566 -0.140943 -0.011996 0.0348664 0.0318606 0.205376 -0.0506021 0.255849 -0.0862306 -0.0638099 -0.336466 -0.0630793 -0.196353 0.0838567 -0.0621449 -0.211537 -0.354479 0.0701865 -0.0159459 0.144065 0.0284859 -0.150096 -0.104086 0.23904 -0.0143061 0.0344545 -0.0823697 0.230077 0.0479231 0.330416 -0.0476692 -0.167261 -0.0280289 0.131575 0.1565 -0.0529112 0.16525 0.200343 0.0917038 0.129794 -0.101793 -0.0169438 0.00778048 0.0491227 -0.223779 0.129524 -0.207197 -0.11126 0.0252393 0.138394 -0.11421 -0.187563 0.0500045 0.119173 0.209838 0.0650057 -0.0542371 -0.119336 0.0954241 0.172915 -0.285993 -0.00497012 0.0745898 0.314348 0.338874 -0.102895 -0.0784556 0.123181 0.0641044 0.0548906 0.118038 -0.0881353 -0.124975 -0.160155 -0.0397555 -0.136345 -0.0217182 0.226711 0.196325 0.0172131 -0.0774425 0.0836257 0.311049 0.143988 -0.163276 -0.038707 0.0175135 -0.00775177 -0.172144 -0.226881 0.114763 -0.157236 -0.0512667 0.0425325 -0.512109 0.0224551 0.176558 0.196708 0.321849 0.00119851 -0.362324 0.33974 0.315655 -0.272636 0.0872854 0.130187 -0.0202126 -0.233856 -0.0967012 0.304743 -0.20634 -0.110736 -0.215357 -0.166863 0.189533 0.30007 0.160889 -0.102633 -0.102019 0.179212 -0.249027 -0.00945883 -0.311718 -0.0541806 -0.0811825 -0.0909246 0.0438467 -0.0487931 0.0437759 0.0348304 0.226144 -0.2295 -0.0577623 -0.0041953 -0.131654 0.260026 0.065438 -0.0294385 0.0292887 0.0281919 -0.210787 0.140373 0.293936 -0.120993 -0.230759 -0.202602 0.0620175 0.0484219 0.189937 0.0810842 0.0234233 -0.483443 -0.0507965 -0.114584 0.121123 0.156246 0.0826222 0.197595 0.121672 0.053532 -0.0904407 0.0341472 0.196555 -0.0033972 0.0742959 -0.0859846 -0.169092 -0.0213479 0.180117 -0.104062 -0.310237 0.0789431 -0.218305 -0.24779 0.141145 0.237894 0.0152867 0.0260004 -0.136058 0.253845 -0.187617 0.0792425 -0.214965 -0.202008 -0.15843 -0.222853 0.0124518 0.0746312 0.203606 0.084562 -0.0859099 0.0456064 0.0305033 0.0693687 -0.0623841 -0.0216129 -0.044273 -0.0184448 0.0543211 0.0180822 -0.241132 -0.175456 -0.171898 -0.202565 -0.25374 -0.12364 -0.0400977 0.228819 -0.0158533 -0.235082 0.0883527 -0.363035 -0.00300437 -0.0637695 -0.218482 -0.107687 0.265011 -0.0903485 -0.1236 0.0397023 -0.0880392 -0.128023 0.00633415 -0.0630278 0.148949 0.194644 -0.297509 0.272918 -0.28149 0.416005 -0.140176 0.176896 -0.0500712 0.0952249 0.0310592 0.148759 0.210838 -0.179378 -0.12974 -0.192303 -0.233355 -0.152494 0.0658553 -0.154271 0.338785 0.312037 -0.22558 0.00756032 0.0965917 -0.117972 -0.413237 -0.346254 -0.0447529 0.112409 -0.130908 0.0365976 0.186302 -0.0518644 -0.031161 0.0664462 0.0210269 -0.131935 0.0950341 -0.294714 -0.0394324 0.0786828 -0.15862 -0.109954 -0.438044 0.0408151 -0.220805 0.221395 -0.072475 0.0056922 0.205257 -0.085087 -0.138645 0.0819383 0.0802117 0.192523 0.0708068 0.317651 0.0743021 0.0713805 0.272521 0.101924 -0.0393101 -0.192638 0.462589 0.256173 0.200651 0.273505 -0.0420011 0.211341 0.301969 0.147527 -0.0253449 -0.0827895 0.261171 -0.0241627 0.127832 0.22738 -0.0675653 0.243831 0.142115 0.192836 0.212767 -0.0276519 -0.0958871 0.276332 -0.108207 0.174302 -0.235006 -0.0553883 -0.0993159 -0.0607448 0.0624416 -0.313223 0.00959964 -0.0095923 -0.0451088 0.252419 -0.00428095 0.242938 -0.108369 -0.179088 -0.153486 -0.173773 0.177515 -0.00445732 -0.100724 -0.177651 -0.0147596 -0.0671827 0.126322 -0.0578699 -0.0446127 -0.180778 0.421722 -0.0819541 0.032109 0.0291363 -0.0675384 -0.14409 -0.0585254 0.115916 -0.00520119 -0.122376 -0.094769 -0.147833 -0.088152 -0.224866 0.245425 0.243533 0.122053 -0.177385 -0.194871 -0.341571 0.210154 -0.270068 0.245233 -0.255359 0.176909 -0.131847 -0.0761983 0.0885116 0.0228722 0.266607 -0.0178635 -0.0455735 0.0750878 -0.141489 -0.0800503 -0.0977413 0.236211 0.0763496 -0.151709 -0.260719 0.461172 -0.278447 -0.0278973
Maradona -0.11219 0.118597 -0.436614 -0.302226 -0.232281 -0.317125 0.224222 -0.126979 0.207436 -0.48502 -0.58534 0.359039 -0.331222 0.0911781 0.0722238 0.390975 -0.109363 -0.184506 0.105987 -0.13883 0.455563 -0.208288 0.404615 0.337899 0.134807 0.238139 -0.25355 0.117693 -0.0142604 -0.413684 0.391037 0.281758 -0.0500008 0.55439 -0.29466 0.324236 0.183933 0.295304 0.0471581 -0.185736 -0.0165725 0.0708514 -0.108344 0.287937 0.357829 0.120678 0.460805 -0.179701 -0.0213713 -0.144581 -0.232949 -0.0756414 0.30315 0.158091 0.278195 0.211752 0.0256489 0.213513 -0.259052 -0.309879 0.144133 -0.419137 -0.252272 0.0664377 -0.404974 -0.362977 -0.171361 -0.0613787 0.293651 0.0407557 -0.290541 -0.0027115 0.0573915 -0.4374 -0.108355 0.0405793 0.14175 -0.16689 -0.198609 0.278118 0.344794 0.121511 -0.180567 0.214317 -0.359131 -0.0945925 -0.510059 -0.00804198 0.0171084 0.0932157 -0.207521 0.434154 -0.249545 -0.485003 -0.369999 -0.0384081 0.47859 0.126584 -0.379888 -0.306525 -0.012144 0.157456 -0.0111744 -0.124571 0.251551 -0.0254052 0.229782 0.127025 -0.335803 0.396339 0.121577 -0.163408 0.302792 -0.0328014 -0.0174008 0.0177316 -0.544498 -0.0862497 0.489443 0.153316 0.205286 0.284046 0.169793 0.0178846 0.0869598 0.29625 0.0701341 0.179343 0.427243 -0.226526 -0.200292 -0.254075 0.142768 0.425027 -0.234807 0.0420012 -0.311303 -0.531824 0.394582 -0.193683 -0.294406 0.44557 0.338904 -0.0414265 -0.0811041 -0.201399 -0.0458692 0.107319 0.0607655 -0.00656659 -0.0322139 -0.345717 -0.0254405 0.534213 0.0833406 0.192115 -0.0115189 0.223897 -0.17372 -0.382198 -0.186738 0.303831 -0.066271 -0.44047 0.0712509 0.275395 -0.00125332 0.270697 0.46226 -0.136655 0.124721 -0.040385 0.490526 0.222952 0.0443291 -0.150407 0.255928 -0.284267 -0.00563118 0.289046 -0.471771 -0.224305 0.319097 0.198902 0.208407 -0.612665 0.128473 -0.164514 -0.668178 -0.223758 -0.236922 -0.310942 0.287502 0.126012 0.251658 -0.404533 -0.259422 -0.357183 0.283717 0.212669 -0.00947213 0.0550417 0.127567 0.117803 -0.163704 -0.314985 -0.1686 0.120927 -0.232503 -0.586079 -0.410433 0.10618 0.258038 -0.133466 0.0540437 0.212887 -0.0279972 -0.0711709 -0.616882 0.098063 0.166224 0.0876497 -0.0284855 -0.253769 0.67618 -0.414425 -0.35726 -0.113982 -0.0724362 0.0554743 -0.255355 0.144683 -0.0578206 0.0900566 -0.151522 -0.00862754 -0.298302 -0.0615187 0.461754 0.106474 -0.0315744 -0.267533 0.424764 0.340842 -0.0843677 0.571945 -0.0263965 0.0879567 0.231869 -0.1492 0.126515 0.426593 0.0319387 0.60737 0.217884 0.153994 -0.0406498 -0.171774 -0.168736 -0.249968 0.0548803 -0.351418 -0.132909 0.551645 -0.0505864 0.138395 0.0926808 -0.0273002 -0.0670883 -0.389252 0.159292 -0.0341455 0.0834304 -0.119218 0.101787 -0.0966689 -0.00670899 -0.0380196 0.228861 -0.451904 0.154105 -0.276109 0.00833009 -0.629889 -0.0317986 -0.0434534 -0.756175 0.0861371 0.321429 -0.332931 -0.0249041 0.154658 0.239916 -0.579046 -0.112944 -0.230434 -0.0198657 -0.0446327 0.580637 -0.00676324 -0.167447 -0.526794 -0.129409 -0.47625 -0.162438 -0.244266 -0.205498 0.16647 -0.0129151 0.0222418 0.567488 0.0985605 0.158821 -0.0340018 0.16329 0.157691 0.111291 -0.15745 0.370007 -0.00572242 -0.184909 -0.0941593 0.309358 0.178804 0.0173328 0.0191073 0.378253 -0.230588 0.555131 -0.269583 -0.201643 0.23363 0.662694 -0.0821371 -0.0674117 -0.0251526 -0.0384314 -0.455265 0.0461107 0.136234 0.0575431 0.160014 0.00854986 0.0824649 -0.0886794 -0.182603 -0.165758 -0.0898134 0.15457 -0.705079 -0.201937 0.189152 -0.37528 -0.495556 0.216606 -0.181021 0.387937 0.313152 -0.254119 -0.0818888 0.326767 0.182665 0.196385 -0.400725 -0.458753 -0.264683 0.11686 -0.147975 0.276913 0.0212505 0.963266 0.103633 0.474955 -0.506481 0.315046 0.32156 0.747689 -0.190378 0.0513981 0.220179 -0.106783 0.126734 0.38199 -0.110571 0.328349 -0.0100026 -0.180232 0.159026 -0.0678675 0.0269651 0.0691074 0.245242 -0.301725 -0.388843 0.202686 -0.246974 -0.407104 0.0635071 0.111535 0.230388
liability -0.308213 -0.566651 -0.615383 -0.279055 -0.145595 0.00280888 0.0546502 0.184243 -0.134628 0.224475 0.365918 -0.10683 -0.0626408 -0.174432 -0.0957238 0.278871 -0.111592 -0.370335 0.0620934 0.0888299 -0.397025 0.341949 -0.0842444 -0.218582 -0.0927311 0.129757 -0.142943 -0.0643218 0.135522 -0.0200729 -0.131404 0.0721916 0.314864 0.0553645 0.147171 0.0349476 -0.410526 0.229299 0.0715488 -0.419044 -0.191569 0.437321 -0.0302684 -0.0134868 -0.305323 -0.286083 -0.0842178 0.0541589 0.104443 -0.0230817 0.184125 0.042175 -0.0715242 -0.290394 0.207682 0.227264 0.150989 0.0199832 -0.445126 -0.406726 0.152951 -0.00663878 -0.130494 0.0212908 0.0339912 0.0317213 0.282491 -0.296216 -0.147404 -0.025787 -0.0254135 -0.0421853 -0.382822 0.108847 -0.296756 -0.174244 -0.0805048 0.375352 0.198648 -0.0216284 0.211534 0.224182 -0.0926265 -0.0649666 0.00877671 -0.155471 0.187194 0.123916 -0.212768 0.277682 0.163127 0.0719388 -0.369004 -0.233151 -0.551185 0.198145 -0.143997 -0.0076455 -0.0739985 0.163617 -0.0353439 0.165467 -0.118341 0.0434988 0.168281 -0.361487 0.186752 -0.0492918 -0.00399002 -0.0754974 0.0315942 -0.173315 -0.400335 -0.147584 -0.373307 -0.18476 0.103405 0.0370703 0.0441085 -0.146094 0.14377 0.202781 0.0318109 0.00306866 -0.275889 -0.0250944 0.275321 0.102292 -0.0981126 0.135854 -0.112276 0.00621716 -0.027062 -0.149316 -0.186799 0.148388 -0.0177085 -0.181966 -0.178321 0.12392 0.112106 -0.266046 0.190468 -0.191777 0.0919733 -0.0500515 -0.149448 -0.197556 -0.108038 -0.16592 -0.182473 0.0124738 0.300155 0.0752681 -0.0229467 -0.419822 0.278364 0.170631 -0.0546027 -0.139845 -0.0404501 0.124768 -0.206338 0.000710002 0.088156 0.0138213 0.0564689 0.201026 -0.367274 -0.12422 -0.106749 -0.0575987 0.368432 0.182499 -0.447914 0.0810462 -0.0328683 -0.0842098 0.0270085 -0.181366 0.416357 -0.147064 0.0179531 0.412812 -0.273602 -0.175998 0.0362513 0.387576 -0.290398 0.19653 -0.377856 -0.322017 -0.171518 -0.00810078 -0.715003 0.0932513 0.176972 -0.14033 0.038797 0.0293634 0.220607 0.0352696 0.0921096 -0.047546 0.0639848 -0.0996949 -0.0523293 -0.112143 0.242397 0.167168 -0.24487 0.413004 0.14339 -0.205685 0.0520132 0.252196 0.0339555 -0.149217 -0.276831 0.138047 0.187967 0.222253 -0.0448681 -0.363507 -0.030877 -0.365725 0.0530294 -0.174484 -0.196426 -0.353021 -0.337061 0.0332115 0.143986 0.290315 0.305986 -0.0290736 0.0226899 0.306768 0.165027 0.0842926 0.256929 -0.0710798 0.0707245 0.247124 0.138064 0.0931172 0.134106 0.136308 0.228073 0.114836 -0.00531548 -0.224219 0.0370544 -0.0848124 0.134806 -0.0155186 0.192745 -0.362682 -0.291709 0.00318171 -0.396356 0.0603455 -0.141148 0.107453 0.202543 0.0237657 -0.0489312 0.146996 -0.279301 -0.270662 -0.0182152 -0.116673 0.195808 0.0418542 0.231887 0.0568628 0.029779 -0.366749 0.0121235 0.345866 0.14273 -0.0758094 0.270937 -0.0808075 -0.164943 -0.249974 -0.148754 -0.425921 0.00643874 0.0934835 0.0894644 0.19274 0.329836 0.0582767 -0.0300118 -0.196588 0.253012 -0.166082 -0.130641 -0.0368348 0.113178 0.154501 0.0202373 0.144356 0.0227829 0.0180408 0.102634 0.152055 0.280489 0.0488223 0.117754 0.0677731 -0.198488 0.106112 0.279403 0.0404861 0.165143 0.151397 -0.105588 0.284263 -0.0398169 -0.21063 0.125681 0.0827399 0.251808 0.0419562 0.114313 -0.15807 -0.166511 -0.36061 0.284284 -0.100545 0.382445 0.0349157 -0.027403 0.402971 0.0332746 -0.292603 -0.13975 0.246283 0.142776 -0.168617 -0.0642679 0.126761 0.000552443 0.267781 -0.0362168 -0.224712 -0.177965 0.139421 0.254102 0.0267354 0.39715 0.0128872 0.0930594 -0.346383 -0.263961 0.0177715 0.126968 0.114318 0.354323 0.197478 -0.115685 -0.193144 0.189134 -0.00649114 0.0173619 0.312517 0.0850458 0.0777811 0.405001 -0.226146 -0.116023 0.335533 0.0463589 -0.101375 0.0824685 -0.00327202 -0.318986 0.109469 -0.0334894 -0.129781 -0.113051 0.491612 0.231591 -0.0416502 0.0995622 -0.121425 0.0489768 -0.0752286 0.0649238 -0.067905 0.181878 -0.0532163 0.239237 0.103196 -0.0867977 0.0458375 0.181244 0.438419
ticket 0.26463 0.0452079 0.0152522 -0.597581 0.018824 -0.305439 0.139114 -0.0692796 -0.172434 0.0258019 -0.00654834 -0.034917 0.205195 0.0060259 0.5342 0.208493 0.0160575 -0.0855541 0.0250345 0.279187 0.076926 0.243537 -0.197009 0.22108 -0.403386 0.317964 -0.450774 0.334165 0.00670159 -0.317456 -0.268019 0.213505 -0.143809 0.325317 0.00508274 0.0322399 0.0667371 -0.0856354 -0.253788 0.0275328 0.106859 0.269255 -0.0384908 0.0598116 -0.00986351 0.110878 -0.139483 0.0851865 0.147501 -0.0695018 0.0517184 -0.196883 0.0639982 0.241943 0.28018 0.175694 0.033803 0.0258352 -0.162165 -0.200496 -0.183787 -0.169384 0.0150063 0.0799809 0.0957157 -0.316351 -0.543046 0.0106787 -0.124072 0.245538 0.264016 0.258792 -0.321367 -0.336937 -0.00907109 -0.10728 -0.0282746 -0.159546 -0.0285358 -0.0922984 0.198158 -0.101583 -0.057404 0.220422 -0.0906662 -0.0966824 0.148946 -0.00300263 -0.106573 0.242794 -0.116731 0.0238347 -0.208055 -0.476514 -0.187589 -0.134102 0.252386 0.316664 -0.243816 -0.164959 0.192401 0.259084 0.163036 -0.158993 -0.154092 0.0644677 -0.128625 0.0336683 -0.0932952 -0.173266 0.129545 -0.0105793 0.113706 -0.0391987 0.0848704 -0.173246 -0.479177 0.262319 0.08373 -0.340067 0.418605 -0.176186 -0.432037 0.447047 0.138858 0.0386933 0.196825 -0.0363256 -0.0692468 -0.175198 -0.478112 0.114967 -0.359943 0.0651859 0.0924135 -0.108704 -0.0679649 -0.102774 0.190208 0.0521215 0.112112 0.127854 0.286008 -0.0183604 -0.0127703 -0.100678 0.322224 -0.28639 0.19228 0.0412734 0.124422 0.0654017 0.337007 0.23513 -0.252272 -0.284816 0.00531511 0.270905 0.339954 -0.173162 -0.362783 -0.281234 0.236249 -0.284877 0.0139049 0.193357 -0.197851 0.547889 -0.348761 0.0580183 -0.00514412 0.195778 -0.00578639 -0.110131 0.180429 -0.246216 -0.191331 -0.261986 -0.178855 -0.0152729 -0.299968 0.30504 0.253388 -0.362588 0.0804396 0.0197297 0.225464 0.37615 -0.241542 0.0449105 -0.140672 -0.00463495 -0.139993 -0.251449 0.0876443 0.0151269 0.135956 0.121791 0.19573 -0.171342 -0.0112771 0.152948 0.432135 -0.181777 0.157723 0.00393232 0.429646 -0.164319 0.0658857 0.42253 -0.255159 0.311349 -0.519534 -0.222438 -0.123688 -0.221925 -0.179777 0.276701 -0.223442 -0.0339973 0.0950146 -0.286214 0.0876673 -0.117092 -0.193345 -0.165799 -0.04733 0.247444 -0.0351537 -0.129872 -0.192843 0.0448937 -0.0180793 -0.18569 0.084198 -0.424512 0.00626532 0.0221719 0.027964 0.210841 -0.130551 0.107564 0.348774 -0.127272 -0.039729 0.236135 0.191328 0.0928247 -0.125221 -0.397168 -0.00765522 0.0985598 -0.263594 -0.149028 0.270667 -0.233764 0.221188 -0.138712 0.140264 0.14843 -0.133717 0.200621 -0.108758 0.227816 0.332981 0.214671 -0.101969 -0.135148 0.0533943 -0.0255597 -0.142174 -0.418592 -0.407501 0.0405121 0.0892445 0.142735 0.357978 -0.111529 -0.0508205 -0.00827966 -0.0488792 0.0692475 0.316196 0.138477 -0.25625 0.0498305 0.113102 0.0481073 0.0458453 -0.0997671 0.224608 0.15555 -0.202549 0.12519 -0.109477 -0.368392 -0.0993807 0.038576 -0.190679 -0.0352555 -0.0858027 0.263476 -0.0735034 -0.135959 0.00417617 0.000127499 -0.235565 0.0366913 0.252531 0.124603 -0.13558 -0.190955 0.154214 -0.00550346 0.532286 -0.0911697 0.143774 -0.0285976 -0.164652 -0.685084 -0.0535779 0.0623859 0.139319 -0.36683 0.12564 -0.0363346 0.079598 0.0337511 -0.346785 -0.115029 0.221592 0.219483 0.532612 -0.153579 -0.435505 0.0222195 0.179278 0.244059 0.056208 -0.0628395 0.110096 0.0189399 0.245982 -0.0367771 -0.267937 -0.0550743 0.219523 -0.239469 0.15948 -0.22211 0.0112298 0.000669442 -0.0235877 0.33238 -0.0518378 -0.229184 -0.0988323 0.236962 -0.320733 0.0553644 -0.532475 0.0240867 0.121547 -0.11238 -0.0453409 0.038358 -0.0815569 0.305229 0.019549 0.0404006 0.298529 -0.115483 0.302886 0.0533082 0.130967 0.370166 -0.255893 0.156533 -0.120413 -0.294561 -0.216997 0.197561 0.339074 0.221973 0.135692 -0.0618091 0.366216 0.109699 -0.0615015 0.242703 -0.267562 -0.0646107 -0.264479 -0.223278 0.251674 0.169342 0.0619311 -0.329414 -0.0229024 0.362411
school 0.433009 0.00991211 -0.327721 -0.0854338 -0.0719813 -0.171549 0.186512 0.0555691 -0.238133 0.0711621 0.281085 0.117974 0.0878027 0.0912621 0.0368993 -0.000938043 -0.320153 -0.30789 -0.0377819 -0.216971 -0.216561 -0.223698 0.00930322 0.116949 0.235979 0.0491813 -0.0918884 -0.28918 -0.225699 -0.123435 -0.302884 0.180292 0.0990908 0.0881471 -0.00225462 0.168734 0.102877 -0.0179422 -0.111051 0.0698365 -0.0484622 -0.262267 -0.0634526 0.0501212 0.204794 0.143752 0.0621695 0.0553623 -0.322176 0.0859651 -0.163077 -0.118825 0.31973 0.166873 0.170146 0.0927989 -0.0770417 0.261235 -0.077729 -0.178173 -0.0609624 -0.375 0.0199153 0.0656511 -0.213649 0.0607093 0.0857521 0.20079 0.0453522 0.0829929 -0.306254 0.272079 0.0609628 -0.0945265 0.0670276 -0.290728 0.181953 0.224823 0.0893799 -0.0401778 0.0317835 -0.151153 0.0787685 0.239718 -0.143083 -0.257329 0.361075 -0.164069 -0.11044 0.122433 -0.284729 0.118205 -0.194413 -0.123067 0.0359481 0.131707 -0.00192474 0.132773 0.383588 0.196379 0.0433155 0.0247404 0.156231 -0.0952611 0.0677456 0.118895 0.191408 -0.209369 0.102245 0.0299099 0.183553 -0.017271 -0.0515283 -0.223077 0.0673086 -0.102519 -0.0561035 0.161046 0.276817 -0.0124211 0.387804 0.101825 0.0212342 0.0625147 0.179107 -0.0150901 0.108516 -0.136088 -0.23001 0.0940004 -0.125472 0.127713 0.0831927 0.186487 -0.0514168 0.0480371 -0.0167023 0.0997503 0.15921 -0.28593 0.0718109 0.0124707 0.221057 -0.397014 0.181002 -0.349092 -0.154812 0.200056 -0.139351 -0.114565 0.142831 -0.179097 -0.125007 0.0885181 0.225376 -0.441537 -0.203232 0.0528375 0.0677149 0.0301334 -0.0506115 0.0379644 -0.169541 0.22755 0.122559 0.108415 -0.298327 0.161492 -0.244522 0.141001 0.0437981 -0.0755243 -0.0538872 -0.0896318 0.445182 -0.0511346 0.0489918 0.0771699 0.240274 -0.0562456 -0.0935829 0.122357 -0.117461 -0.123544 -0.0962096 -0.112177 0.2935 -0.0483356 -0.0476283 0.0731913 -0.0455975 0.17099 0.0348 0.0726551 -0.00460786 0.0491381 0.239185 -0.148365 -0.24448 -0.0565104 0.0897382 0.119922 -0.0964241 0.0953013 0.191375 0.258677 0.10717 0.176227 0.234366 0.148368 -0.0679759 -0.12679 -0.298085 -0.0735391 0.00792446 0.0549531 0.0387436 -0.233841 -0.197988 0.0296695 0.0851193 -0.0545036 0.100272 0.0573898 0.102341 -0.194682 -0.192474 0.08089 -0.148307 0.142097 0.072098 -0.22796 -0.0401682 0.0835801 0.0918109 -0.175761 -0.0168812 -0.256631 0.180775 0.047973 0.216273 -0.0864073 -0.230944 0.287782 0.0585173 0.0397244 0.13731 0.252984 0.164388 -0.197277 0.0808168 -0.131322 -0.0738752 0.0757355 0.141845 0.490791 0.154525 0.0147967 -0.0683513 -0.263526 -0.136951 -0.174449 -0.0559506 -0.148588 0.103784 -0.2001 0.0789607 0.439589 -0.0426348 0.0495729 -0.265226 0.351528 0.246028 0.106074 -0.139432 0.0176015 -0.0896326 0.0149438 0.00351272 -0.134396 0.113482 0.108546 -0.201436 -0.0623198 -0.352455 0.0931186 -0.383216 0.00876405 -0.0288122 -0.397882 0.145573 0.0919524 -0.0417423 0.0176683 -0.0150843 0.135564 -0.234356 0.134758 0.351272 0.0377566 0.135776 0.0151577 -0.0233357 0.256737 -0.186521 -0.165725 0.114748 0.0271959 0.340568 -0.104372 -0.222833 -0.189213 0.250536 -0.140201 0.134596 0.253952 -0.142187 0.00470504 0.146467 -0.141205 0.0849539 0.0459203 0.536244 0.0750565 -0.0951878 -0.197741 0.215967 -0.183399 -0.0148671 -0.309526 0.371596 0.195635 -0.0758913 0.092287 -0.240928 0.145298 -0.197579 0.0806801 0.0320776 -0.0166596 -0.556087 0.247077 0.0884819 -0.138374 0.198217 -0.0257321 0.288671 -0.329486 0.342864 -0.277768 -0.0814941 -0.10901 -0.0780872 0.0194739 -0.0888764 0.0330352 -0.127131 0.00852876 -0.058305 -0.231183 0.0753717 -0.00720433 -0.0786058 -0.190202 -0.086285 0.0564647 -0.105057 0.113957 0.137445 -0.120857 -0.111321 0.313925 0.068896 0.157689 0.397734 0.122454 -0.228254 0.268007 -0.00715313 -0.141201 -0.106475 -0.141923 -0.0857312 0.10714 -0.189843 -0.180914 0.352208 -0.042213 -0.249213 0.0277656 0.161029 0.0356134 -0.00761192 0.134546 -0.067718 -0.168858 -0.244953 -0.0134116 0.200308 0.19683
gender -0.124263 0.354371 -0.546982 -0.271106 -0.0782678 -0.037585 0.0786204 0.228533 -0.053572 0.423449 0.105688 0.114448 -0.0270095 -0.0970564 0.286074 0.211395 -0.149219 -0.0585732 -0.00443225 0.22993 -0.195951 0.110376 -0.0882298 -0.0894662 0.371555 -0.282818 -0.534091 -0.121906 -0.138589 0.099403 -0.301921 0.152769 0.307595 0.225364 -0.110877 0.195306 -0.236653 0.221509 0.409192 0.0424368 -0.0781598 0.0688397 -0.0911356 0.296355 0.238753 -0.129513 0.132785 -0.00130851 -0.281064 0.0267348 0.186058 0.204059 0.0309262 -0.279667 0.0791227 0.404769 0.112611 0.288386 0.123626 -0.228723 0.219375 -0.151315 -0.0141204 0.225548 -0.0739698 -0.0799181 -0.120102 -0.30199 0.190403 0.157315 -0.334933 0.426045 0.269523 -0.178322 0.118273 0.191587 -0.462536 0.226533 0.183686 -0.347113 -0.0305204 0.192494 -0.0874317 -0.199818 0.217253 0.0860932 0.332114 -0.0141471 0.11451 0.192445 0.0404734 -0.199614 0.108601 -0.259507 -0.0482043 0.0639317 0.235567 0.347422 -0.208759 0.110196 -0.0176491 -0.0719688 -0.0879427 0.137559 0.0571936 0.176302 0.430226 -0.192573 -0.120414 0.471799 -0.00517212 -0.110064 -0.0321676 0.190499 -0.167812 -0.245859 -0.0797306 -0.0288711 0.350609 -0.168036 -0.0123312 -0.0870777 0.147201 0.267085 0.363517 0.133718 -0.178789 0.0281997 -0.136174 0.176558 0.115174 -0.126192 -0.304345 0.0765593 -0.0404747 0.0476434 -0.123814 -0.0921472 -0.0464123 -0.0376495 0.148358 0.0688815 0.116879 -0.0522406 -0.0431255 -0.0926321 0.0353002 0.241757 0.0186958 -0.174957 -0.151714 -0.234017 0.218001 -0.613177 0.154386 0.477179 -0.00465452 0.184254 0.0341765 0.112625 -0.281101 -0.218245 0.533197 -0.0249845 0.0148076 -0.0813208 -0.143927 0.130026 -0.352039 -0.423895 0.0122422 0.215723 -0.0409674 -0.00178752 0.245095 -0.320216 -0.238969 0.0878418 0.244253 0.703181 -0.291955 0.0923015 0.154645 -0.250771 -0.0335301 -0.278144 0.243072 -0.0354953 0.150093 0.0968788 -0.0186859 -0.268901 -0.090895 0.194204 -0.0992445 -0.00660892 0.0109923 -0.322247 -0.0651861 0.0946015 0.0585068 -0.0144747 0.0365105 -0.0291504 -0.0236886 -0.109032 0.0659029 -0.0807894 -0.33832 0.146158 -0.106283 0.21682 0.0957021 0.190856 -0.30033 0.0404278 -0.4108 0.0228939 -0.38021 -0.180425 -0.0169411 0.16996 -0.403612 -0.245569 -0.42154 0.050036 -0.119709 -0.029474 0.312401 -0.0721123 0.0132678 -0.104413 0.164727 0.00554746 0.103349 -0.441667 -0.0494394 0.331102 0.0306967 -0.00576398 0.209922 0.172358 0.290827 0.0161701 0.222545 0.48468 -0.418552 0.370462 -0.13232 0.163955 -0.135646 0.179685 0.228142 0.184541 0.163525 -0.135863 0.411374 -0.109269 0.0110528 -0.280459 -0.0737529 -0.431266 -0.0372649 0.105247 -0.0371475 0.208763 0.0758061 -0.324737 -0.128545 -0.532322 -0.146112 0.0701342 0.00912419 0.539194 0.319018 0.15867 0.0645728 -0.099181 0.195781 0.132553 0.0954031 -0.200625 -0.116533 -0.0879644 -0.296066 -0.402797 -0.227764 -0.250621 0.0607489 -0.0854135 0.00921244 0.131093 -0.0409511 0.194631 -0.0402987 0.046172 -0.160456 -0.144848 0.153071 -0.218639 -0.0968398 0.0479944 0.40049 -0.0524982 -0.241602 -0.00353637 0.0253413 0.1261 0.340409 0.146851 0.204936 -0.0141758 -0.0816526 0.178253 -0.04722 0.472908 0.0382355 -0.306186 0.049717 -0.00865036 -0.0206618 -0.466502 0.428706 0.260593 -0.168839 -0.0641035 0.0331988 -0.240984 -0.186699 -0.321477 -0.154323 0.132811 0.438822 -0.421166 -0.113564 0.12303 -0.0564053 0.0487147 0.0138134 0.0063557 -0.121747 -0.0783023 -0.0307527 -0.157882 -0.187537 -0.466766 0.115397 -0.144667 -0.131323 -0.280089 -0.42845 -0.0581607 -0.249959 -0.0830895 -0.303816 0.0182263 -0.168397 0.492793 -0.0288055 0.13423 -0.41785 -0.191446 -0.0215152 0.187784 0.123101 0.168447 0.000311221 0.197786 0.0151278 -0.113369 -0.485015 -0.028774 0.334943 -0.0900515 0.228487 0.259733 -0.07461 0.0367014 0.393909 0.118245 0.0350906 -0.110893 -0.098214 0.256746 0.273134 0.154868 0.199668 -0.21331 -0.142945 -0.0125509 -0.0479618 0.0774292 0.137555 0.118425 0.245447 0.0100954 -0.27437 0.121206 0.05675 0.464488
brother 0.107817 0.253179 -0.199932 -0.220357 -0.0351334 0.0909976 0.0734657 0.204452 -0.103503 0.0156052 -0.0417238 0.266563 -0.283273 0.316883 -0.252466 0.0421097 -0.346218 -0.265762 0.275874 -0.0918758 -0.464101 0.0767662 -0.000637875 -0.0600933 -0.261026 0.145527 0.0226803 -0.155776 -0.0519425 -0.0691447 -0.0654275 -0.0376572 0.219978 0.0872976 -0.0126752 0.142668 0.00838606 0.355769 -0.295377 0.0618223 -0.173522 0.0682951 0.209706 0.0187433 -0.0234611 0.166923 0.224296 -0.0344392 0.0520348 0.262638 -0.167681 0.092315 -0.0801481 -0.150496 0.00800603 0.119044 0.0937102 0.0722795 -0.177781 0.00941772 -0.0416313 -0.0722823 0.088284 0.0725017 0.533092 0.261654 -0.360329 -0.0212857 0.143848 0.100022 0.0648031 -0.228948 0.148924 -0.0477265 0.289046 0.317122 0.00529646 0.19777 0.23111 -0.255198 0.0453092 -0.107467 0.0531746 0.0283318 0.0403333 0.0325828 0.12623 0.0084682 0.305697 -0.0998978 0.00341171 0.0877968 -0.249137 -0.565112 -0.117738 -0.00165526 -0.10068 0.47352 0.0704768 0.0527425 -0.106521 -0.00287429 -0.123807 0.172808 -0.00305578 -0.261826 -0.270351 -0.140721 0.197969 -0.26397 0.0372751 -0.0117966 -0.394664 -0.290591 -0.159763 -0.0759208 0.0664491 0.166772 -0.0480339 -0.137193 -0.0795975 0.138673 0.0900158 0.151396 0.287578 -0.070989 -0.15778 0.0804577 -0.210289 0.100961 -0.22333 -0.0397061 -0.122409 0.032039 0.15984 0.242889 0.0111808 -0.159408 0.0452583 -0.220682 -0.256103 0.0126417 0.280208 -0.399327 -0.258612 -0.0239485 0.263216 -0.135285 0.226054 -0.239262 -0.427721 0.174975 0.150147 0.26391 -0.0643233 0.15485 -0.368714 -0.00634606 0.314949 -0.168542 -0.0479426 0.0298853 0.110963 -0.0547305 -0.241229 0.110841 0.269946 -0.095458 0.170671 -0.0332947 -0.157138 0.0978684 0.0585779 0.170047 -0.083906 -0.184605 0.0410779 0.346864 -0.10055 -0.160204 -0.0494047 -0.18124 0.20176 0.0139522 -0.125098 -0.0563493 0.114056 -0.0863964 0.214308 -0.159436 -0.304587 0.234787 0.116408 0.152615 0.35847 -0.115098 0.119743 0.0152912 -0.280606 0.0610175 -0.00696865 -0.308648 0.115646 0.13263 0.00402552 -0.210633 0.0394598 0.0586602 0.176629 -0.118877 0.0051489 0.0698895 0.43493 -0.12963 -0.0442333 0.147582 0.0805698 -0.0818142 -0.0947659 0.0152623 0.227465 0.0324961 0.485188 -0.106901 0.199604 -0.271618 -0.313358 0.00391022 -0.273371 0.145252 0.0657118 -0.157203 0.304811 0.182653 -0.0161143 -0.0982687 -0.296 -0.103303 0.0390662 -0.164378 0.228613 -0.449749 0.0907849 -0.20984 -0.0426224 0.113339 0.14849 0.017125 0.0925931 0.00692623 0.047188 -0.130216 -0.0723752 -0.21751 0.0873043 0.494206 0.0469719 0.0309397 0.0278151 -0.0642312 -0.0455656 -0.364929 -0.0798173 0.1303 0.0446553 0.155512 -0.0846888 0.126449 0.217465 0.0479351 -0.187953 -0.123783 0.236334 0.181113 -0.00261698 0.422125 -0.0269191 0.0273998 -0.0168105 -0.287497 -0.246023 0.538756 -0.230608 -0.348741 -0.285417 0.168648 -0.403598 0.0667934 0.299921 0.385859 0.0303748 0.171276 -0.0307126 -0.0936591 -0.148532 0.122381 -0.0655041 0.175738 0.353471 -0.232752 0.213394 -0.00174741 -0.00181246 0.142413 0.164229 -0.0362322 -0.12707 0.0334535 0.121039 -0.0564718 -0.2087 -0.294559 -0.149404 -0.188615 0.565482 0.391929 -0.018649 0.154962 0.119813 -0.0452292 0.0207719 -0.150049 -0.141815 -0.010912 -0.205379 -0.0736272 0.110739 0.139939 0.17515 -0.366436 0.377766 0.175038 -0.0798875 0.071755 -0.433818 0.0979447 0.0489794 -0.080561 -0.0975487 0.0302218 -0.102737 0.0472332 0.0771174 0.0909102 -0.112417 -0.243571 -0.235767 -0.291115 0.0574388 -0.180395 -0.0946563 0.412656 0.108228 -0.108781 -0.0291927 -0.226522 -0.13197 0.417681 0.216363 -0.0750588 -0.167092 0.0683781 -0.102819 -0.0828677 0.0922618 -0.396691 0.0777126 -0.259833 -0.0953086 0.0951032 0.11216 0.18509 0.296554 -0.0231018 -0.125904 0.0294866 -0.275207 -0.00617549 0.101364 -0.183022 -0.0636328 0.0300157 0.0370525 0.109909 -0.138855 0.252645 0.152374 0.0551289 -0.175149 -0.00377646 0.264416 0.126273 -0.0557639 -0.351591 -0.39584 0.000477402 0.267621 0.266357 0.0653873 0.528936
car 0.0370618 -0.218192 -0.196579 -0.095344 0.142376 -0.177956 0.224205 -0.110015 -0.0483785 0.268708 -0.0392305 0.32723 0.182443 -0.0378894 -0.00439192 0.200854 0.00370351 -0.183235 0.149521 -0.153648 -0.0186843 0.317998 0.31472 -0.142304 0.0897489 0.10785 -0.176399 0.0141578 -0.156705 -0.288779 -0.224897 -0.0766803 -0.0266944 0.0511798 -0.120373 -0.458489 -0.287441 -0.220796 -0.352664 -0.327711 -0.114923 -0.021816 0.114006 0.10116 0.202541 -0.228978 0.315325 -0.152008 0.00212348 0.118501 -0.213401 -0.179236 0.13543 0.141173 0.0767809 -0.16073 -0.0839066 0.0268454 0.021019 -0.0362549 0.0647505 0.0591589 -0.0666225 -0.207871 -0.248946 -0.049453 -0.373063 -0.0844709 0.158688 -0.255181 0.420376 0.0138726 0.113199 -0.0248641 0.35495 -0.436186 -0.15326 0.190532 0.246284 0.0231594 -0.148403 -0.074158 0.147711 -0.222642 -0.00386502 0.0456982 -0.231599 0.0073879 0.285246 -0.124411 -0.222953 0.0353691 -0.247654 -0.025986 -0.352359 0.110609 0.0225485 0.0130267 -0.0862398 0.282321 -0.029576 -0.00959772 -0.00384193 -0.436766 -0.0338709 -0.0356752 0.130762 -0.125433 -0.117947 0.0397809 -0.104254 -0.0798806 0.0512997 -0.330644 0.0752666 -0.102992 -0.221871 0.0876378 0.286631 -0.243573 0.25603 -0.206071 -0.124892 0.304995 0.065454 0.177791 0.0940294 0.0868432 -0.0772212 0.083499 -0.164777 -0.254918 -0.163584 -0.153276 -0.128056 0.318036 0.215886 0.0457083 0.0552498 0.00778833 -0.136503 0.173777 -0.0149474 0.0109063 -0.050581 -0.0162455 -0.0688454 0.039058 -0.0815379 -0.0267604 0.015678 0.104952 0.166686 0.136502 -0.0927095 0.00145634 -0.22766 -0.0883217 0.0449698 0.10736 0.0686015 -0.151309 -0.0338799 -0.0811513 0.0569217 0.192644 -0.19689 0.0267782 0.228278 0.0766645 0.199491 0.160491 0.256977 0.363657 0.545916 -0.103113 0.0958865 0.0123732 -0.0846527 0.0900977 -0.091971 0.303154 0.194338 -0.406227 0.0853118 -0.00299159 0.0821039 0.16261 -0.108261 -0.156286 -0.00588283 -0.117202 -0.0628563 -0.0405631 -0.21238 -0.00122285 -0.150361 -0.199334 -0.0767601 -0.207749 0.194042 -0.0717283 -0.470724 -0.390473 -0.103021 0.00701707 0.208268 0.353647 -0.390388 0.182208 -0.113075 0.558886 0.0463965 -0.185023 0.222196 0.226704 0.315997 0.0973259 -0.13247 -0.209485 -0.0592385 0.0741949 -0.168062 0.0351137 -0.0592097 -0.160773 -0.0951985 -0.127763 0.356516 -0.0118791 0.0101755 0.190965 0.000502628 0.225122 -0.102096 -0.0951952 0.175939 -0.112131 -0.0606688 0.0998103 0.168307 0.0124223 0.055335 -0.0823388 0.00900102 -0.0199362 0.300433 -0.0563901 0.0580975 -0.0992418 0.220796 0.0130475 0.250344 -0.203587 -0.211811 0.165573 -0.0754379 0.0376605 -0.233437 0.14232 -0.120769 0.00828541 -0.085977 -0.0196787 0.150898 -0.0233663 -0.06231 0.195812 0.107635 0.196856 0.0367599 -0.0147835 -0.0140607 -0.103431 0.125285 -0.199365 -0.0233557 0.0190657 -0.0899218 0.00750902 -0.00906676 0.302251 -0.183169 -0.383671 -0.104254 -0.00454367 -0.357373 -0.0533957 -0.0776599 -0.102421 0.305568 0.268446 0.130752 0.172569 0.0327907 -0.0918181 -0.231915 -0.198366 0.0932881 -0.084737 -0.0561121 0.056893 -0.0387077 -0.00557661 0.085765 0.0231059 -0.413225 -0.0069944 0.29336 0.47107 -0.0600351 -0.244222 -0.237654 -0.180919 0.0211253 0.131619 0.031662 -0.0668069 -0.24262 0.101629 0.0246094 -0.0930099 -0.343736 0.0309029 0.113122 0.0546616 -0.158472 0.0285532 0.157373 -0.19016 0.386626 -0.347037 -0.074388 0.0202391 -0.325632 0.234567 0.107591 -0.185534 0.205671 0.240792 -0.0482066 0.221403 0.0684267 -0.565617 -0.313525 0.000668769 -0.182519 -0.312618 0.209682 -0.160711 0.045625 -0.109694 0.0534973 0.132744 -0.140356 -0.217185 0.104904 0.443725 0.119413 0.248765 -0.0490775 0.0417843 0.0865839 -0.0061512 0.0387352 -0.303509 0.214872 0.114967 -0.0322125 -0.0289002 0.247008 0.0998815 0.0776867 0.44319 0.140528 -0.175527 -0.143664 0.292121 -0.0815111 -0.0306512 0.0682697 0.0814358 0.279173 -0.0850774 -0.0154994 -0.000549667 0.233303 -0.0503364 -0.0288041 -0.384952 -0.137589 0.028253 -0.113478 -0.315645 -0.0544694 0.117817 0.44119 0.341641 -0.0516508 -0.0712833
mammal 0.304566 -0.433845 -0.338975 -0.277776 0.182548 0.153102 -0.0917826 -0.159773 -0.0634397 -0.11878 0.0728365 0.13321 -0.0340343 -0.0215358 0.0440874 0.41334 -0.137025 -0.0364392 0.103063 0.208065 -0.252041 0.182378 0.191132 0.30497 -0.236478 -0.266176 -0.150374 -0.0444025 -0.227334 -0.0472639 -0.257916 0.081581 -0.241429 0.263965 -0.227224 0.164991 -0.269049 -0.303613 0.156013 -0.13808 -0.256638 -0.333816 0.400248 0.17002 -0.524139 0.140073 0.359743 -0.0547821 0.156911 0.0171197 0.406965 -0.113318 0.0871571 0.200528 0.0666864 0.303717 0.0698112 -0.0557935 0.269831 -0.662535 -0.229762 -0.502862 -0.0472875 -0.38603 0.293337 -0.202721 0.033188 -0.267816 -0.0722426 -0.151174 -0.156286 -0.0564804 -0.104058 -0.161151 0.0959241 -0.0548837 -0.158178 -0.136579 -0.00871588 0.554566 -0.0387982 -0.102322 -0.283899 -0.217099 -0.0358196 0.173915 -0.107144 0.481028 -0.0540355 0.194647 -0.140683 -0.0608272 -0.43047 -0.205801 -0.153383 -0.113236 0.224514 0.0569928 0.332139 0.156887 0.350121 -0.0326375 0.349497 0.195234 0.218489 -0.504188 0.24497 0.199953 0.571349 0.0383712 0.214234 -0.232629 0.190443 0.186906 -0.0550177 -0.347916 0.336534 0.37564 -0.0784991 -0.0459721 0.147067 0.0822307 0.0890871 0.24769 -0.312075 -0.0314714 -0.248101 0.340045 -0.161056 0.12015 0.258014 -0.0833048 -0.0192386 0.0162191 -0.0408568 -0.177545 -0.0641274 -0.213904 0.0720394 -0.648562 0.0419911 0.129133 -0.218323 -0.0590707 -0.0993026 -0.228553 0.0493557 -0.27731 -0.101213 0.14347 -0.283667 0.130117 0.306534 -0.0034143 -0.036996 0.0030823 -0.324334 0.0418155 -0.0901822 -0.457849 -0.00551892 -0.0841381 -0.271549 -0.0683321 -0.328477 -0.21481 -0.249142 0.298178 0.444493 0.116411 -0.055775 -0.0393982 0.206833 0.0361971 0.105636 -0.253219 -0.110878 -0.0111716 -0.0075557 0.035027 0.466747 0.073851 -0.136213 -0.224594 -0.538246 -0.254505 0.292367 -0.025509 0.102279 -0.00470279 -0.236861 0.256379 -0.0280623 0.144044 -0.491908 -0.533096 0.0451402 -0.238077 0.188027 0.178685 0.0830296 -0.145628 0.068423 -0.294845 -0.266362 -0.234567 0.321398 0.454759 -0.139901 0.0430719 -0.21063 0.143538 0.42587 0.00110864 -0.179533 0.261643 -0.329911 -0.0193541 0.324117 -0.206753 -0.0241751 -0.00948688 -0.189408 0.203635 0.11959 -0.0228002 -0.514559 -0.250024 -0.383655 -0.145638 0.26816 0.405869 -0.540673 0.264347 -0.480165 0.342311 0.314601 -0.0600337 0.25755 0.291934 0.377678 0.1514 0.486513 -0.00542137 -0.298234 0.33784 -0.737395 -0.0696347 -0.0882651 0.137738 -0.251315 0.00273508 0.392692 -0.286452 0.0544695 0.163072 0.00835995 -0.0735154 0.0997101 -0.225675 -0.386452 -0.329859 -0.387442 0.356857 -0.438983 -0.0226301 0.368695 0.10371 0.286102 0.108981 -0.340624 -0.040194 0.146255 0.228757 -0.085042 -0.0886197 -0.266385 -0.0426107 0.0319488 0.155476 0.186027 -0.188108 -0.169828 -0.0111365 0.00342116 0.0342417 0.120231 0.0205953 0.388656 0.349141 0.545429 0.350675 -0.112237 -0.146454 -0.107926 0.285742 -0.402968 0.0864882 0.289804 -0.109683 -0.32325 -0.0836117 -0.375463 -0.0956231 -0.432398 0.0143884 -0.235678 0.0632825 0.309273 0.0890747 0.701168 0.104431 -0.0781108 0.100736 -0.346557 -0.0752473 0.157633 -0.101555 0.0576014 0.0635035 -0.023043 -0.0507352 0.150321 0.278145 -0.0185803 0.0834843 -0.192626 -0.0934884 -0.129885 -0.337131 -0.103067 0.156821 0.506438 -0.605509 0.218894 0.273199 0.258889 0.231411 -0.101786 -0.0710037 -0.247358 0.210947 0.109798 -0.114096 -0.0395621 0.328673 -0.0616611 -0.0945433 0.431548 -0.00284225 -0.259355 0.119643 -0.409492 0.0180866 0.50489 0.133723 -0.445763 0.230168 0.0133075 -0.0602197 0.154831 -0.0946423 0.506788 0.174333 0.0860293 0.320708 0.354776 -0.246726 0.0519155 -0.547542 -0.0669708 0.250908 0.280991 -0.175822 0.223268 0.556915 -0.247489 -0.250699 -0.0818691 0.132839 0.201551 -0.480633 0.0699842 -0.376155 0.0896042 0.284603 -0.00702563 -0.224016 -0.122203 -0.348727 0.049822 -0.19813 -0.00803062 -0.00153125 0.0930099 -0.256246 -0.0653604 -0.0496045 0.140359 -0.055578
round -0.243119 0.0980562 -0.407679 -0.224049 -0.271245 -0.336677 0.365616 0.0484717 -0.300991 0.12438 0.0834376 -0.158165 -0.120919 0.091558 0.0478919 0.0836675 0.102991 -0.158279 0.35834 -0.0147029 0.0513483 0.277831 0.0750365 0.206846 0.0188732 0.0174556 0.0122477 0.231828 -0.22694 -0.00513922 -0.113178 -0.280358 -0.120476 0.0825303 -0.198089 0.0719747 0.108607 -0.179639 -0.236755 -0.0980897 -0.208221 -0.0639243 0.0397795 -0.114552 0.0917599 0.28014 -0.0433239 0.0885379 0.0459988 0.236675 -0.251039 -0.179917 0.455033 0.0332026 0.122746 0.237662 0.160674 -0.0634627 0.480042 0.0156373 -0.124645 -0.265848 0.306914 -0.358135 0.0697672 -0.0134376 -0.112639 0.0106523 0.105952 0.0013893 -0.0718854 -0.0281122 -0.365755 -0.238402 0.0374745 0.0282692 0.129273 -0.136454 -0.244501 0.1453 0.351127 0.0136454 -0.0695554 0.0793972 0.26758 0.232781 -0.214554 0.20106 0.00851528 0.0562466 0.0950406 -0.0741207 -0.272899 -0.10799 -0.203685 0.16218 0.0134995 0.317583 -0.344448 0.304116 0.159367 0.238241 0.292948 -0.117134 0.000556744 -0.0996739 0.0725628 0.0634909 0.145849 -0.0555136 0.165132 0.00474921 0.318783 -0.366121 0.16637 -0.293029 -0.263226 0.267345 0.0103867 -0.298983 -0.00614661 0.0163994 0.186713 0.023168 0.031719 -0.258693 -0.22791 0.0922322 0.21541 -0.193193 0.0150062 0.0909978 -0.465717 -0.0314765 0.135514 0.109457 0.301744 0.037164 -0.106095 -0.105997 0.030885 0.174437 -0.0575009 -0.102156 -0.25068 0.148655 0.16032 0.11035 -0.0251434 -0.128095 0.134679 -0.0886659 0.125664 0.214573 -0.228222 -0.0344366 -0.126287 -0.215493 -0.417493 0.0356967 0.20689 -0.111414 0.203148 -0.271597 0.0896463 0.0374456 0.0564887 0.0103139 0.182536 -0.0545408 -0.252338 -0.343617 -0.0142183 -0.0241757 -0.221922 0.267537 0.177443 -0.0458768 -0.138985 0.134037 -0.235503 -0.0138121 0.237475 -0.169477 -0.277174 -0.203531 0.217962 0.0276431 0.160549 -0.187721 0.0528046 -0.181854 -0.0432308 0.28464 0.127225 0.101508 0.102636 -0.0303401 -0.00579268 0.029153 -0.10974 -0.0831843 -0.244249 0.0752896 0.0594381 0.0304086 0.145358 -0.0638704 -0.0637652 -0.154874 0.113275 0.0744436 -0.0862162 -0.19095 -0.255388 -0.0892902 -0.0608055 0.104736 -0.156539 0.0695651 -0.206382 0.0537384 0.122267 0.0903496 0.191908 -0.227855 0.0740815 -0.0253059 -0.0721968 0.174593 0.0365085 0.0306563 -0.0127033 0.171328 -0.682032 0.101743 0.0960716 -0.11841 0.169679 -0.360993 -0.0334015 0.0368615 0.119606 0.196688 -0.000412655 -0.208389 -0.0495079 0.292901 -0.108114 -0.146711 0.206607 0.223454 0.216465 0.124962 0.0149567 0.658834 -0.0944012 0.0816191 0.137955 -0.222319 -0.0518293 0.191545 0.094503 0.609049 -0.00929975 -0.121751 -0.330961 0.226304 -0.202149 -0.185289 0.0616073 -0.132721 -0.0222089 -0.323948 -0.390558 -0.101551 -0.0206292 0.0380262 0.0908518 -0.107042 -0.17407 0.0987441 0.0360905 -0.162883 0.120473 0.102557 -0.0238835 -0.126073 0.010409 -0.0252896 -0.14128 -0.202736 -0.109207 0.162179 0.0240095 -0.261665 -0.116548 0.271667 0.0271682 -0.0831127 0.172083 -0.225761 0.0415457 -0.0900398 0.14215 -0.0812659 -0.0127983 0.244474 0.339239 0.138438 0.0742916 -0.0402294 0.245792 0.118343 0.366207 0.309634 -0.0147298 0.0770613 0.00167621 0.309666 -0.0481872 -0.0343181 -0.114191 0.341248 0.00719272 0.125171 -0.133698 -0.056211 0.1727 0.0253706 0.251533 0.176077 -0.018086 -0.0336174 0.0559461 -0.0211154 0.36901 0.19401 -0.0956009 0.0836076 0.167956 -0.0499855 -0.220058 0.1851 -0.0368521 -0.338456 -0.0337807 -0.17323 0.314752 -0.0279057 0.161943 -0.0398455 -0.103187 0.287013 -0.105163 0.302681 -0.107544 0.267979 0.022387 -0.226707 0.160984 -0.100398 -0.0143601 -0.134036 0.282127 0.0559 0.0869897 0.0303065 0.0388378 -0.0070385 -0.415031 0.00787424 0.105391 0.195814 -0.0972366 -0.12549 0.0535712 0.112413 0.0099115 -0.0690019 -0.385333 0.150126 0.0129155 0.129762 -0.11316 -0.0451626 0.377927 -0.160038 -0.169188 -0.0309851 0.0915716 0.158072 -0.411061 0.0645989 0.206008 0.111951 -0.327214 0.286863 0.0505808 0.106072
